encog,BasicNetwork,java,3.2.0,1,1395166674874
[BASIC]
[BASIC:PARAMS]
[BASIC:NETWORK]
beginTraining=0
connectionLimit=0
contextTargetOffset=0,0
contextTargetSize=0,0
endTraining=1
hasContext=f
inputCount=200
layerCounts=11,201
layerFeedCounts=10,200
layerContextCount=0,0
layerIndex=0,11
output=0,0,0,0,0,0,0,0,0,0,1,0,0,0,0,0,0,0,0,0,0,0,0,0,0,0,0,0,0,0,0,0,0,0,0,0,0,0,0,0,0,0,0,0,0,0,0,0,0,0,0,0,0,0,0,0,0,0,0,0,0,0,0,0,0,0,0,0,0,0,0,0,0,0,0,0,0,0,0,0,0,0,0,0,0,0,0,0,0,0,0,0,0,0,0,0,0,0,0,0,0,0,0,0,0,0,0,0,0,0,0,0,0,0,0,0,0,0,0,0,0,0,0,0,0,0,0,0,0,0,0,0,0,0,0,0,0,0,0,0,0,0,0,0,0,0,0,0,0,0,0,0,0,0,0,0,0,0,0,0,0,0,0,0,0,0,0,0,0,0,0,0,0,0,0,0,0,0,0,0,0,0,0,0,0,0,0,0,0,0,0,0,0,0,0,0,0,0,0,0,0,0,0,0,0,0,0,0,0,0,0,1
outputCount=10
weightIndex=0,2010
weights=-0.00984345,0.6317276243,0.4474466495,-0.8539155346,-0.2523825539,-0.574918868,0.2288585038,-0.5109233868,-0.4904153528,0.2957843748,-0.5449167498,-0.8526726768,1.5471334497,0.7263183552,-0.0676585712,-0.261184456,-0.750723149,-0.6052888672,-3.1832994676,-15.5699717998,-0.6572284655,-1.5328789883,0.8510354525,0.0954214484,0.7308681404,1.0536741902,0.9167742462,-0.6180173268,-0.1196129843,-10.302623739,0.6996568786,0.800887708,0.8278345393,-0.3514560373,-0.539900396,-0.9586897992,1.5086224477,0.3873990643,-0.4825142547,0.7007190161,0.2238716054,-3.1366735182,-0.425070783,1.6698187706,0.7490871751,-1.3984946211,-0.4165168791,0.9115774319,0.654889322,0.652872333,-2.0244564528,-0.8386576553,1.1577099842,0.6467508322,0.070588427,2.312356987,-2.6629896891,0.4256888799,-0.1432540419,1.8028719823,0.9834443962,-0.7255189376,-0.0047046324,-0.1259435526,0.0072776214,-0.6089110443,1.6622314769,-0.0957582844,-0.9792203409,-11.0529289986,0.6628179868,0.8743219151,0.2093705784,0.2816118647,0.5378240203,-0.6043844789,0.8837993561,1.6650030882,-0.6194000129,0.5151042165,0.2883798436,-0.6860989945,0.3035790442,0.7412528654,-0.3032288534,-0.5827161682,0.1364627275,0.0248185814,0.9515694773,-0.3071654195,0.166390472,-0.452447262,0.4312834705,-3.7269939574,-20.3312760003,-0.7968740842,-2.6843854679,0.5695134714,-0.3503399721,-0.4450380902,-0.509457648,0.1074015368,0.4710129805,-0.1418182547,0.8922903938,-3.2135518325,-0.8030312181,1.1736646484,0.7401946876,0.4095515279,0.5939934216,-0.1055568597,0.531530955,-0.5246352658,-0.1874829752,-0.8089726842,1.784758968,-0.025782321,-0.2744025589,0.1837926295,-0.2814934414,-0.272760379,0.884740102,-0.6954324462,1.7182137078,0.7262038364,-0.2161107299,0.6044520598,0.6054506251,-0.034118426,0.5319893051,1.0422409226,-3.9955584248,0.5232825704,-0.6429471997,0.7077391877,-11.429064299,-0.0548066886,0.2456007132,0.1334173649,-1.014272276,0.5475787874,0.2492434678,-0.6700061091,1.6165461943,-0.0016164154,0.2693436169,1.1691300065,1.0158554911,0.9202023816,0.0723602784,1.0285162423,-0.1889492339,-0.8654140883,0.6937043713,-0.6744536854,-20.2400214369,0.2864446654,-2.6986794026,-0.8534843081,-2.8721107135,0.9971176667,0.6326022082,0.6525612562,-0.2168089322,-0.1114136541,-0.5688416579,-1.8805463895,-3.8966230896,0.2092118771,0.5877330061,1.0885670234,0.1050741643,-0.2758313033,-9.7299138526,0.7991382946,-0.3554083456,0.8506859824,-0.256476914,-0.7954605818,0.8935802949,-0.8081239034,0.7358252383,0.9029156239,-0.9088459348,-1.6303334886,0.3105723921,-0.3835732911,-0.7326773265,-0.2920173845,-0.1695537018,0.6239892011,-0.9685351054,-0.2229408278,0.4663410084,0.7460849708,0.8498881177,-0.1895900933,-0.0902788865,-0.4479467809,-0.4618575451,-1.8248164494,1.1747888111,-0.1758299961,-0.8104178769,-0.1399118436,0.6502119074,-0.0255001155,0.055408447,-1.2602320314,-0.4789857977,-3.4342242659,0.1818731359,-1.4086035682,-0.7782145454,1.1681907021,-0.776086021,0.8668854256,0.499475926,-1.007173686,-1.1702198009,0.8272917402,-1.5398100973,0.9316146401,1.2206336711,-1.7286073499,-0.7679856387,0.155396684,-2.0676425759,-0.5803790593,-2.3201815744,-1.6336763993,-2.1365828464,-1.4927462503,0.345277032,-1.6735608736,0.6348627615,-1.7058400906,0.6300057482,1.411497847,0.0514442296,0.1197002501,-1.0219704202,0.88077764,-1.4289114078,0.8842538344,0.181967294,0.8095648444,0.6365039112,-3.1702241122,-0.4671089089,0.2097108944,1.3746375397,-2.068117579,0.9190507839,0.6933703606,-1.8516857036,-1.3674523469,0.8838620003,0.9221116281,-0.9420498228,0.0366452768,1.2328107592,-1.7239460122,-0.0690372636,2.4231697597,-0.1243557126,-1.9359136119,0.2533497481,-0.8286679414,-3.0805869343,0.3831574592,0.0724823678,0.2571500444,-2.5039016582,0.5136521597,-3.4785931887,-3.3345711408,-1.3484320186,0.8054131806,-0.8468823805,-1.9861352979,-0.9055316415,0.8484211298,0.398792899,-0.3085347048,0.2309998848,-0.4410905936,0.6774936978,-2.4294945374,-0.4065278682,-0.2790498978,-0.3887134825,0.3680741038,-1.9077468507,-0.3303121013,-0.6767011026,-1.4524044491,-0.1818086774,-2.8380536869,0.0659793553,0.1254029934,0.2858684748,-0.974545888,-0.6715608122,0.9303073604,-1.6444855192,0.2230739607,-1.9410924805,-0.6562326989,0.2725980266,1.253799742,-1.8429824037,-0.0117005706,0.8507401232,-0.2318708968,0.6467628908,-3.3421450658,0.5731247246,0.419825859,0.2873457473,-0.322526589,-0.2963952239,-0.3062012059,-0.4756510604,-2.055748091,-0.2806253453,0.6457667632,0.0795642278,-0.2454438149,-0.9503688377,-0.005946578,-1.4052426233,-1.0073995869,-1.7019464874,-0.53819426,0.617847139,-0.8852540956,0.9980611737,1.1586986305,-1.5651108838,-0.1004586843,0.5222556027,0.2470842212,0.1532393848,-2.5026171767,-1.8244589807,0.8139606218,-3.9780004347,-1.1881509779,0.1589856739,-0.9826976001,0.2958624143,-2.8347554606,0.9344473064,0.9512072193,0.0381726151,0.742847343,0.1461925957,-1.3670946883,-0.7990956559,-0.0355101013,-0.002562911,0.044310046,0.941331285,-0.0271988584,-1.2152436218,-0.0398193341,0.2563947131,-0.7860369863,0.2377829099,-0.1566493,-0.7421114975,-0.0106909454,-0.6276930285,-2.6511463623,0.4072916768,0.0796423341,0.4216280769,0.8826076582,0.4927105665,0.0087765284,0.4119959038,-0.1592379637,-2.1688782854,0.9530496216,0.0895944268,0.4905279521,-0.9548787782,-2.0941747863,-0.4892195274,-0.201628104,1.2640838663,-0.748180083,-0.461505259,-3.1326293518,-0.2372700281,0.622791121,-2.1473398205,-3.2780424058,0.1769144521,0.6567198295,-6.4726803778,-0.3091343016,0.43108697,0.4928542727,-0.4812336228,-0.0746278464,0.2655854875,0.5701977949,-4.059265556,-0.6728953095,1.0075672591,-0.6284553205,0.5172766523,-0.1409927371,-7.4873067541,-0.3667432887,-0.5035878971,-5.9336707488,-0.247512706,-1.9542820182,-0.6474445419,22.2302966048,-0.1494576769,5.743063687,-1.4725016323,-0.1618358835,0.5724755297,0.4629912385,0.27746261,0.453012786,0.7899156879,-0.5294080977,-0.1203107846,0.5836484237,0.3963844751,0.2492363368,0.1000902985,1.0096503402,1.0458495623,-0.3166312309,-0.3880971936,1.8866787704,0.1684986724,-0.7453878694,0.7780756177,1.6323395953,-0.2993534993,-7.3105308074,-0.6632169287,-2.2142773361,20.9907033211,-0.6943325322,0.7829240461,-0.2958043129,0.45377748,-1.8268586379,2.7562353697,-6.7835487795,-0.439818944,-0.2389588498,-0.7444210224,0.0555700065,0.3884287471,0.7019484021,0.7239689258,0.95468972,-0.4113999081,-0.9824112862,0.8910738954,-0.567272275,-0.6908439877,0.829987561,-0.235726301,0.9428653478,0.0442357217,0.3774489921,5.384893757,0.8330360456,-0.2926533635,-0.5875374405,-0.6801084854,-0.5211930763,0.4464972294,0.7490120164,0.6361368115,-4.7937012142,-7.2223151702,-0.5480833253,-0.7664744327,0.0535078999,0.4483137893,0.3133562922,0.2253750345,-0.8868309256,0.6868750739,-0.4543955577,2.4500327802,-0.0981179044,-0.3731907308,0.0930195292,0.661855112,0.9020024276,-0.4893703547,-0.0628644153,-0.4589403543,0.0103431072,-5.0325233694,-0.1860341211,-0.1584313029,0.0313009632,0.1099594663,0.0466818713,-0.9735584875,-0.9275770942,-0.5206886117,0.1347991631,-2.3484758022,-0.2411011648,0.2415796647,0.2868659596,-0.4772821688,-4.9029173961,0.943883568,-0.8004096297,-4.4594067789,-0.7150811778,-0.5176915908,0.7399751201,0.4490515016,-0.1411158156,-0.2176655908,-0.8131882367,-0.6521340357,-16.4934296006,0.8108701063,0.4983015215,-2.1792775107,-0.8392563237,-0.2285470524,-0.5844388937,-1.0850252729,-0.1907425458,0.6309893891,0.1064529105,5.3268957658,0.206780523,0.4391670162,-0.55317696,4.1156907273,0.0057861845,0.7761513848,-1.0358273788,-0.4602090174,-0.2961783676,-4.8682374283,0.1088245291,-1.0305622883,0.6380019743,2.7850388829,-0.1619122109,-2.3920802723,-0.9513555489,0.2514181999,-0.3392074626,0.495690184,5.4108434528,0.9246147681,5.146767937,1.5084166769,4.3232819463,0.4320646616,0.1115075428,0.1443283309,0.3971913084,0.7576052903,0.1847217804,0.4226236459,-0.0622483399,-0.5377666596,0.1061402725,0.7825306361,0.8413057638,-0.3559426567,-15.5361364156,0.2410812084,5.1166948174,0.7470706225,-5.0765852383,0.8750663756,-0.3412661282,0.5306400798,0.3700821949,0.385806961,-0.345122423,-0.3120704747,-0.312063432,-0.9347724528,-16.4651947353,-0.6920465683,0.0541090955,0.6509663863,-6.1653138827,-0.3236781476,-0.6771295513,0.519870284,-0.9000235931,-0.2609907302,-1.0096588461,0.0190527165,-2.8157672444,-0.2017796748,2.5420632812,-0.9469877594,-4.0209096178,-0.7091162063,-7.5289513972,-0.123169817,0.4352949029,0.8647561888,0.1950244884,-0.5915282223,-0.1825184131,-3.4484224261,-0.9175034266,-8.3302194552,0.8743171331,0.7971089182,-0.4551209832,2.4077730972,-0.2801076557,0.0229735592,0.079748292,0.6328128732,-1.3101397229,0.1403980924,-0.0364005736,-0.087957797,0.1798238041,1.5356724868,1.4357941192,-0.5866595529,0.5526044316,-3.0508064371,-0.3818492103,-0.5951297614,-0.3058971191,-0.8642353496,-0.2270398977,-6.6262317205,2.406030487,0.1435277749,-3.0559469282,-0.6785067795,-0.4519284847,0.6755150597,0.8152579832,-15.1748868803,-3.7310973123,-6.421164985,0.6638782682,-4.6354536954,-0.5078963591,-0.3371810725,-0.415679679,0.8157143203,-0.3251072315,-0.9554123717,0.6330943558,0.4893543912,0.9400503257,0.9460873039,-0.1126092021,-0.6477459318,-0.7369343073,1.440800792,1.29334216,1.7471869283,-6.1129267328,-3.8913100292,0.171560555,0.7178261622,1.3805056051,-0.2127332232,-0.1370720224,0.8917740463,0.1615135661,0.8538660277,-6.2628733227,-0.4923520947,1.041852145,0.8270027981,0.485025061,-0.9938717969,-0.2001864926,-0.6139393899,0.7655580386,0.6970740377,-3.785674918,1.259135763,2.3981359021,-0.7851602233,0.0185929976,0.1464095367,-3.1338276272,-0.9924180249,0.7456844204,-0.3022283585,-0.4341800514,-0.2127645112,-0.6771332304,0.2841377032,-0.8513696688,-0.2483308911,-0.1385562603,0.0792539735,0.1148659914,0.4131550793,2.107970394,-0.8679717382,0.2421757439,0.6682790756,0.2066887171,-1.5613414728,-0.345893076,-0.6583024704,-4.0701034228,0.8219306593,-0.5282900963,0.0795080278,0.7801241425,-0.4227038021,-0.1590702161,-0.2690240189,0.8384031344,-2.4838423282,-0.9982158703,0.6579997861,-2.3321434205,0.7120261386,-0.1866113011,0.3930409152,0.8307079538,0.237554943,0.9383027616,-0.1536266208,-7.1041801398,-15.2774660202,-0.7679690667,0.7219077896,-5.1938387697,-0.1974373744,0.6987856396,-0.6914770116,0.9136373641,-0.2177811301,0.9391875678,0.1972976218,-0.1211861275,-0.2606500277,-4.6382179134,-0.718985511,-0.4321491928,0.0638728025,0.0135208859,0.8894952315,-0.7434935622,-6.2108016238,0.6354990668,-2.0311975149,-3.4399058853,-7.2548575813,0.4540336562,-0.8960981816,-0.975537381,0.1585875269,-0.391856296,0.6500677928,-0.42697438,0.6062432914,0.9211725686,-0.037965624,-0.7257453446,-0.5690501031,-0.4783627924,-2.2256004344,-0.6438311992,-2.0065116955,0.5855067145,-1.7171262271,0.0455760531,0.0686124927,-0.0037089009,0.9396977488,0.2599376228,0.3316776529,0.9765640333,-0.5191448475,0.1945508558,-2.4255929154,0.0400735851,0.3364679377,0.9277695506,0.5355270094,1.0211223668,-0.315804079,0.8391838238,1.0936259678,-0.3079576836,0.6461777839,0.7637627476,2.5151092945,-0.0064004146,0.0034822427,0.6626083619,-4.9479297946,0.7465847333,-0.2232848487,0.1391224846,-6.663467505,-0.5605392508,-2.8871448211,-1.7728316859,-7.1139320559,-1.8593938574,-0.4300950184,-0.7452289189,1.201582657,0.3000013672,-7.1493119445,-0.2779657487,0.5703328469,0.2222569533,-2.9940583134,0.9362296539,-5.6701058584,0.4839412356,0.6885002583,0.5894567919,-6.6728583493,-0.1341575759,-0.8527123805,0.0345337527,0.2324407296,1.4401900947,-0.3454122928,1.1124450685,-0.9443023273,-1.3782230205,-0.1124577474,-0.6696253563,0.0844596021,1.5862532969,-1.5802622632,-0.57211352,-2.6660943535,0.3484953433,-0.5871634971,-2.6734312352,0.3219262268,-0.3898181284,-0.2867301972,0.5343590653,-0.0396665494,-4.9595671217,-0.0165498018,-0.2000478387,0.182778221,-0.9691049856,1.6411994485,0.0773403036,-0.2206059902,-0.7793881426,0.9137846443,-0.302595605,0.6134074156,-0.6741587064,-0.751307616,-0.1027636734,-0.4862621514,1.3326254567,-0.6677096918,0.6402961321,-0.4818969285,-0.7431234013,-0.9275298708,-0.6529873434,0.8089600644,-0.0665809553,0.9471026647,-0.8449629534,0.0954096925,-0.0763146321,-1.5665475438,0.8827124065,0.589433343,-2.4079960185,0.1414187597,0.21092139,1.8675566694,0.8471482981,-0.2415321315,-0.7143249432,-0.1944322557,-0.8447243454,-0.0051331132,0.0686047785,-0.5703397298,-2.7626580697,0.2532218565,0.2447151123,0.3812782805,0.1312042834,0.3457721191,-6.0660897111,-0.8712599304,0.464434953,-0.857215549,0.1613416885,-0.0245061874,-0.3925625011,-0.5328855464,-0.1092511275,0.0948722268,2.3155758636,-0.7874933364,-0.5462810439,-7.0547081565,0.455044084,-0.8821409553,-0.613803057,-0.5064378785,0.0734676404,-0.5459373167,1.1719301536,-2.490951897,-0.4106279917,-0.6176206525,-0.0569395532,6.0078102754,0.173795641,0.4609190931,1.3514059827,0.9030940656,0.8076410745,-0.637019411,0.0709957802,-0.5089775786,-5.584030879,-0.9777832806,1.0979512973,1.9968835612,-0.006420302,0.6171877617,-8.2011462487,-0.1756122076,0.1791288143,0.5662648327,0.1826033768,-0.8106751579,-0.6491015108,1.9227797652,0.2909042128,-1.5142044263,0.2923211674,0.8464477732,0.1321267141,-7.068239316,2.3336982044,0.7884338366,-1.4845955561,1.2781533643,-0.4756181595,-0.697655537,0.1448722765,-0.4121199,-0.6383434749,-0.8044116765,0.569749621,-0.0367868018,-0.2494733206,1.0112597485,-0.5772976793,-0.5251666016,-0.8846711737,0.5304433138,-0.3013169376,0.4643003772,-2.3500506433,-0.3370309837,1.4329405195,0.2964600301,0.7414577224,-0.2096201544,-0.7146610855,-0.2612205936,-0.3332211236,1.0808747278,-0.3807098849,-0.1959618537,-0.3616031889,0.014389079,0.9115174047,0.4133389143,0.2131671222,-0.4000414014,-0.9216812011,-0.1524937292,0.1651121661,-0.5012800815,0.5349844565,-0.621736618,-0.9270847117,-0.9078549046,1.163434803,-0.3105836551,-1.0453594192,-0.88052686,0.7450718783,-0.4432541331,-0.2450841461,-0.5735135109,-0.0681279274,67.4884810417,-0.7249576132,-3.8316575701,0.9862292368,0.7169696415,-0.7844736084,-1.1498822674,-0.8141967584,-0.3695195016,0.874494978,1.1541922625,-0.624942107,-0.7031495442,-0.4450898838,-0.092615306,0.8694571055,0.501879834,0.5677661146,0.8709064999,0.8176040279,-0.050250857,-0.7109939316,-18.4856863099,0.4935806221,-2.0099306156,0.4435975847,-15.2775350185,1.5654713563,1.1019362501,0.0304023891,0.2131164185,-2.3943210658,-0.1493262304,-0.8176308817,-0.6113264086,0.3033500649,-25.1897796018,-17.6318823607,0.6893985808,0.9372908382,0.7369427851,0.1673732528,-1.1557187893,-0.6367580769,-0.5512977004,-45.9215242794,-0.1698471203,-1.398183879,-0.0306378399,-0.4157436821,-0.0918278799,-0.1423770903,0.4507884962,0.0739078683,-0.201789762,-0.2330017637,1.0794277888,1.1931521806,0.9632752456,0.1492768822,0.0474636976,-0.0659739801,-0.2413052805,-0.2626355893,0.3993916307,1.0475103871,-0.4623679766,0.4348380312,-0.2821307561,0.8691773544,0.820890164,0.763780991,0.4843328434,-0.866208759,2.1567634723,0.0119736978,-0.1807936077,-18.1660162731,0.7108477945,0.7570044094,0.0206224181,1.0344772759,0.2628277314,0.8486812609,-0.8625826802,-0.850591886,-1.6538928088,0.7986781105,0.3912562057,0.9161381176,0.2432610771,-0.454547256,10.5651951877,-0.2590260642,0.0823296608,-0.1290498893,-0.9380922066,0.5983369436,0.1089377334,0.6156277853,-0.8540837567,0.7250258946,-0.8410171848,-0.8091530096,0.254893147,0.9910863328,-0.0623563823,-0.0772946473,0.7096734154,-0.0220215244,0.4551510769,-0.4133733119,-1.5269342539,-1.2247054857,-0.4220567719,-0.5167172826,-0.9494295363,-21.4591438559,-0.4632732717,0.7351507796,0.2102554373,0.7816285961,-0.9988998135,-0.0045352457,-0.700801526,1.3217580543,-0.3649096546,0.6505349928,0.2783687116,-1.8040048668,0.3222723737,0.3179785521,0.8769954087,0.4998597644,-0.0247237146,-0.5294494172,-0.9903577753,1.6519749332,0.3434038115,-18.7712347317,-0.32091254,-15.3086715788,0.5777325637,0.371395342,0.7690977099,0.4185111046,-0.0443846316,0.5801403116,-1.5971130087,-17.9257752011,-0.8632692819,-0.4667717887,-0.7586918719,0.7479641277,0.1809756838,-0.3062424848,-0.7129697792,-0.2608279709,0.1476605408,0.9231021814,-0.0682614608,-0.0859274485,0.4778844555,-0.2810975153,-0.5870111417,0.1946700007,-1.5432940743,-0.1194138178,-1.5965226672,1.0260318332,-0.4377239601,0.8497290459,0.9494506642,0.0786457518,0.7813591679,0.7065912191,-0.8917494815,-0.1920843942,-1.5075646141,-0.341024187,0.5217149939,0.4554718811,0.0886149377,-0.5266388335,0.1233073091,0.8171509424,0.7396962705,0.3212504997,-0.9130693348,-0.2587882869,1.47607651,0.046470085,-0.8099063415,-0.0727139142,1.3578997401,0.3793478042,0.2636104611,-0.1232149932,0.3480566631,-0.2095531803,-5.1228003247,0.6891722764,-0.0243905926,-1.5507579215,0.272364623,-0.3858332469,-3.0421060654,-3.8026012429,-0.03643979,0.1509361701,0.631912534,-0.9771901235,0.6000141863,-3.4036022576,-3.0409560527,-0.52026073,1.082617249,0.26517585,0.9484958445,-0.1006515562,0.6765015467,-0.0717353578,0.9131169626,0.8215233814,0.7607874534,-2.9909826601,-0.3849330056,0.4878666624,-16.0567120472,-0.439812283,0.3347928663,-3.7476038341,-1.8765501547,0.9013074535,-0.3633668619,0.4783717238,-0.0852223306,-1.3851941037,0.3789974889,-0.9638882763,0.5317983173,-0.2413306643,0.4257939367,0.684981272,-3.8964068107,-0.0930543655,-0.0505272155,-0.7914733489,-4.1580868443,0.658732384,0.1077341292,-2.3679088449,-0.9695613854,0.1324497026,-0.6498283398,0.3945890826,0.0170296798,0.5111134348,0.7252409598,-9.1087854391,-0.9446365726,-0.7018066199,0.2269001966,0.2827668428,-0.718332345,-0.1882490635,-0.7593512493,-0.765324452,0.0179329305,-0.5846115437,-0.027056337,0.676302856,-0.6527361013,0.1580382589,0.2418404498,-5.5487563113,0.9780684062,0.7653330952,1.4829348853,0.9502843278,-0.9239428023,0.3312967208,-0.2580564868,0.4210341103,-1.0407727962,0.3822046796,0.2897295527,-5.8079899803,0.5954526171,1.8959461763,1.7296062492,0.5268885849,0.8040511228,-0.7909229996,-0.222809488,-0.2592494243,-0.7842672002,0.8427752177,-0.0526848219,0.984526361,0.1823093955,-0.0225418353,-0.251524309,0.1761172723,0.383287049,0.5264303886,0.9191648964,0.4607912992,0.4929586439,-0.6018198012,0.3404055206,-0.942208501,-0.1729111993,-3.5662424882,-5.7675204986,5.251093166,0.6750765169,-0.3362845003,-0.9208333588,0.4199786265,-0.5808411198,-3.0876969034,0.1218193391,-0.3719601012,-0.0794932884,0.1227472344,0.7559697707,3.0740280449,-0.3610929844,-0.0564259073,1.4324806223,-0.6332320575,0.4790422858,-16.8042373784,0.1946038586,0.832341437,0.0908678884,0.1873568038,0.0060170254,-0.4887621144,1.4349548974,-0.0020431965,5.6069283622,-0.5849695208,0.3281827015,-0.5282028583,0.5554777221,1.4212532198,-0.4355376058,-2.7423071318,-0.1030194968,-0.1995734986,0.97289665,-3.9472587132,0.5559005118,-0.1894134274,-0.8643277538,-0.5950270987,0.1082991813,-0.9224791184,-0.9449348356,0.1938647484,0.0676678543,0.1478876382,-0.3940618339,5.6646493024,0.712039494,-1.907848388,-0.4382596159,1.5029626481,-0.0713120404,-0.3900989028,-0.4479238406,-0.505631472,0.7657554716,0.5932018849,-0.4971006471,0.1164670333,-0.1133739354,6.3974665023,-0.8525420335,-0.4346428262,0.4896260554,-1.9865434423,1.143549822,0.2935570803,0.0940764861,-0.3935467939,-0.6387773556,-0.4815590214,0.4703574631,-2.6165415604,-0.869938176,-2.7218436994,0.277939955,-1.9489397571,-0.0783073691,-3.9140711118,-0.9036125483,-0.620895189,-0.7222433048,1.0288405651,-0.1068541872,0.8958627608,-1.8086918938,0.5107919705,-3.5122396736,1.6744052502,0.6590276135,1.0439271215,-3.5575872788,0.397355411,0.2119573289,-0.2351750274,0.635966293,-1.7420653137,0.3050186333,-0.398204638,-0.2547822135,0.2190936719,-4.2305619114,-3.6921408827,0.2210337781,-0.6908894395,-1.056296253,1.0431480224,1.7727973795,0.9473673699,-1.8400427065,0.1587922329,-2.4770805274,-2.3782702683,1.2412301474,-2.309570152,-0.2871553922,-0.4454534266,0.4963691719,0.0670885624,1.0447858129,-1.2038652595,-2.3951334658,-0.5849821273,-1.6834728116,-0.6502198295,0.4610247511,1.1462948398,-0.219074987,0.7953085561,0.4242758917,0.5612043046,-0.1340973156,0.9667266999,-0.0122804976,-0.9345854199,0.8663551136,-0.3152303858,-2.4576492752,-3.6198049565,-3.2228354588,-1.9941876429,-0.4327845509,0.8746967292,0.8201341085,-2.9780331038,0.1594710532,0.6458019392,-0.8640664833,1.0802347327,-0.7547013275,-3.6242357433,0.1376074177,-2.6715039616,-2.8361752363,0.1057539275,-0.0440585178,0.4374954754,0.6211412521,1.1365074384,-0.5283355594,-0.9415799255,-4.6182549145,-3.5341616617,0.6704839946,1.0645571477,-0.4336961672,-0.9362001303,-0.3068006141,0.7812066771,1.2258606162,1.0265057016,-0.0555669387,1.2590086772,-0.4497493744,0.5445929239,0.6325643912,0.7953617625,0.3410472117,-0.6469436747,-0.5594326424,-3.9015238414,0.4879770356,-0.6665264325,0.7061751536,0.2740686047,-2.5902112822,0.8767387124,0.2065141039,-2.4833626972,-0.9267305146,0.9959460595,-0.7122109135,0.5237632825,-0.7557747346,0.9136484072,0.6398835366,-0.0636356233,-1.9948339265,-0.7241289677,0.0426159296,-0.7917581138,0.6265992086,0.6569441727,0.2030357198,1.0511957092,0.706001548,0.3661771706,-0.3116591149,-1.4689453331,1.2772761565,-0.3204443526,-0.1224400798,-2.62621818,-0.8984351228,0.8953252668,-0.5234196457,-2.6231345451,-0.4948011818,-0.1925561375,-0.8582532899,0.67164314,0.0241692242,-2.2174352142,-0.3385899464,0.4546242135,-0.0854985914,0.2804540079,-2.8077249212,-0.3257975009,-1.509551201,0.3609429851,-0.8601545385,-1.3183075519,-2.9868870232,-3.3747362599,0.4761143291,-0.0487652236,0.5020620436,-0.6545736348,-0.55348467,-0.8076071385,0.9656850293,-0.2204540524,-0.5059160408,0.2573249513,0.3220429957,-0.2495450867,-1.6276329781,0.4230730483,-0.1596172037,0.6011093789,-1.2594231834,-0.5695279773,0.9441774447,-0.578111351,-0.4140352378,0.5456610513,1.1067339521,-2.6453297219,0.1786691319,-0.2043000606,-0.9619727627,1.2079065441,0.3601002521,-0.6717272934,2.0878859321,-1.1547974656,-0.8853240443,-0.2695242708,-0.8218862106,-0.6460435608,-1.4817320129,0.2666027091,0.4019881764,0.1348971526,0.412736131,-0.8277038484,1.0418310902,-0.5266052651,-0.8783325756,0.0146584345,0.7384420753,0.8938826199,3.279228771,-23.9243366609,-1.3624848081,-2.6333041777,-0.422222635,-0.492117345,1.4951312206,0.0582177502,-0.2358941156,0.4029975793,0.6821576853,0.7481842849,1.8592366369,0.2686739806,0.5794950185,-0.580981488,0.0442856082,-0.5485399815,-0.1724801231,-0.8143384583,-0.9854259286,-1.262741693,0.0851400964,-4.4896131227,0.2518217628,1.1776524844,0.014116625,-2.7850577396,0.0127857078,-0.486872949,-0.0051854201,0.0485918958,-2.5081954771,0.4926033003,1.8410219366,-0.5139809359,-0.2428969143,7.5094772455,-5.2507231833,0.2204332466,-0.7590992559,-0.3666647435,-0.0888324804,-0.9578207601,0.6165161805,0.9683063004,-0.7919930722,-0.0045016996,-0.962529118,-0.0612966452,-0.6810401815,-0.3217607607,-0.1568418053,0.2745811537,-0.488871903,0.4207917025,-1.1876945421,-1.2294993221,-0.5478471279,0.5949883088,0.6944767484,-0.4049070212,-1.0734625023,-0.8762652862,-0.4522656435,-0.1171954007,-0.7997187123,0.0635848435,0.0528520807,0.1475267656,0.5614313066,0.5029429845,1.0624239028,0.4605225415,-0.3608098038,-38.6126630976,0.4029596443,-0.2557860399,-5.7792065874,-0.7565933122,0.0344728253,-0.0574593069,-0.4701400585,0.7939606805,1.1202546466,-0.0919037449,0.039978429,2.9265209651,-0.8302837764,-1.0785760547,-0.099700731,-0.0792594852,-0.6701160742,0.4625814395,0.5890145142,0.1412297217,-0.6104872662,0.338038707,-0.720444015,0.7311224026,-0.9967784239,-0.7458056753,0.426308092,0.4903097155,0.6769008656,0.8700009746,0.6482113315,-0.5917878152,0.1655189893,-0.8330464908,-1.4287988738,-0.4360028941,-0.381870484,-0.8048058178,3.347532337,-0.1044852295,0.9253233943,0.0993433067,-23.2398923462,0.6125284784,-0.3691060589,-0.6884630361,0.0265185291,-0.3369629066,0.054782359,0.1421596226,0.4624588045,0.7765230593,-0.9076491508,-1.1278822555,-0.2909288034,-0.525173901,0.0190714303,0.3777951746,-0.151916167,0.3091931884,-0.1709573316,0.4884550081,-0.7843036434,-0.0771777488,-4.824976757,0.3124062515,-1.7243706375,0.4973446025,0.8362545299,-1.0736099915,0.0311639887,-0.0616392715,-0.108858722,-2.9883895794,-6.0214388768,0.6967447214,-1.3724849665,0.1310037182,-0.5247432245,-0.8932383034,0.6691035498,-0.0672273796,0.4970685459,-0.3492995427,-0.2455159177,0.6219123015,-0.0046394891,0.732493887,-0.8359719317,-0.5047352308,-1.103179432,-1.5790409047,0.4002025539,0.4294172888,0.4187716972,-0.8620974751,-0.350398252,-1.276013423,-0.8041204887,-0.0589870699,0.6645012064,-0.7644445759,-0.8744098296,-0.287489289,-0.715863477,-0.7022201079,-0.0797820025,-0.7813211125,-0.8234999333,-1.2927185492,0.013037484,0.4376258168,-0.5755954764,-0.7328030221,-0.1517557191,4.1492262879,0.5124015371,-0.0058374642,0.247738468,-6.7162855212,0.9126397268,0.0787909336,0.218169467,-11.0172258427,0.2416997611,3.1760294528,-3.5324166724,0.126237229,-0.0480208839,-0.1730186843,-1.1174687443,-6.6367872475,1.5145355199,0.2656984282,-0.293134458,-0.182135344,-0.7670970384,-7.510574785,1.5255575771,4.5584849483,0.2166783666,3.5056743802,-0.2243743801,1.9497769165,0.4417341087,0.0129187991,0.2207764642,-0.243166957,-3.8816191246,-0.8652783287,3.5533211686,0.752423451,-1.3452555202,-0.5895813837,-0.4201951043,0.5765383845,-6.9237469267,-1.8153418389,-0.5305732347,-8.2377432953,-0.874986235,-0.9284760823,-3.2744147699,-3.9873472723,-0.4909414118,-0.7841434361,-6.4678415637,-0.2095774533,-9.819215654,1.8422776741,-0.7445904492,0.4561368541,0.9361711179,2.5346586134,-0.4566467834,0.0674817251,-0.8639962441,-0.2167187027,-1.2503959498,-0.8774576485,-0.8185028548,0.3350302101,-0.1025460811,0.6346862416,-7.1279412544,-0.397860641,-0.7592095536,0.3538888425,-0.0048370501,0.0128946889,-0.9791424175,0.5814721034,-0.2327093995,0.1910182946,-0.4639499171,-0.6669394192,-0.7302010496,-7.1659765658,-1.3049198281,-0.2094171813,-4.6335014937,-0.7963710694,-0.8186175566,-3.1736168175,0.4630029875,-1.0707155307,0.4589368333,-0.9460184476,-0.196351715,-4.4407349305,0.6189628996,-0.786803708,1.8765594878,0.2662234817,3.2744903134,2.6692491201,-0.1445821233,-0.2287762527,0.4633265823,-0.644145456,-0.0116070752,-0.945278134,-0.1920165751,-12.5999235442,0.3328264591,-0.4560116969,-0.0254899534,0.4521762519,2.913849881,0.6846152124,-0.6145917111,3.1841868934,-0.3574409518,0.0991739389,0.4017339913,0.6032631201,-0.0947933349,-0.665209778,1.3294098453,2.0633314118,-0.5863701305,0.8231604149,-0.9195730578,-4.256623404,0.4055061915,0.3420713618,2.0285926267,-0.5351988736,-0.6316411418,0.2939485337,-0.7128238133,0.8568191936,-8.6009755253,-0.4888918206,-0.2070556828,2.5732175666,-0.6027477094,0.0090875289,-0.347440895,0.7393087638,0.0000484857,-0.0161193314,-0.5801539523,-1.3248882532,0.6927401261,-3.1351887578,-0.3600238761,-0.9154122898,0.795270012,-0.8114795183,-0.0557739496,0.6336130718,2.3135126438,-0.670428455,-0.7499756058,-3.00653704,-1.0408148319,0.2948253637,1.8493107607,0.3597561514,0.7055648323,-0.6257510112,0.6836484524,-0.9641582508,0.1684547133,-0.4462947458,-0.590649975,0.1875533411,0.5695451068,0.0459080211,-0.5126720062,-0.0872268253,-1.3460524757,-0.0520621508,2.8660271518,-0.8074852917,-0.2354751176,0.2908438892,-0.5302428262,0.5595871118,0.2706889588,-0.4503391782,-0.0406783351,0.9462066552,-0.4419279122,-0.2087472102,-0.4229553022,-1.2549675008
biasActivation=1,1
[BASIC:ACTIVATION]
"org.encog.engine.network.activation.ActivationSigmoid"
"org.encog.engine.network.activation.ActivationSigmoid"
