encog,BasicNetwork,java,3.2.0,1,1395233079415
[BASIC]
[BASIC:PARAMS]
[BASIC:NETWORK]
beginTraining=0
connectionLimit=0
contextTargetOffset=0,0,0
contextTargetSize=0,0,0
endTraining=2
hasContext=f
inputCount=500
layerCounts=11,101,501
layerFeedCounts=10,100,500
layerContextCount=0,0,0
layerIndex=0,11,112
output=0,0,0,0,0,0,0,0,0,0,1,0,0,0,0,0,0,0,0,0,0,0,0,0,0,0,0,0,0,0,0,0,0,0,0,0,0,0,0,0,0,0,0,0,0,0,0,0,0,0,0,0,0,0,0,0,0,0,0,0,0,0,0,0,0,0,0,0,0,0,0,0,0,0,0,0,0,0,0,0,0,0,0,0,0,0,0,0,0,0,0,0,0,0,0,0,0,0,0,0,0,0,0,0,0,0,0,0,0,0,0,1,0,0,0,0,0,0,0,0,0,0,0,0,0,0,0,0,0,0,0,0,0,0,0,0,0,0,0,0,0,0,0,0,0,0,0,0,0,0,0,0,0,0,0,0,0,0,0,0,0,0,0,0,0,0,0,0,0,0,0,0,0,0,0,0,0,0,0,0,0,0,0,0,0,0,0,0,0,0,0,0,0,0,0,0,0,0,0,0,0,0,0,0,0,0,0,0,0,0,0,0,0,0,0,0,0,0,0,0,0,0,0,0,0,0,0,0,0,0,0,0,0,0,0,0,0,0,0,0,0,0,0,0,0,0,0,0,0,0,0,0,0,0,0,0,0,0,0,0,0,0,0,0,0,0,0,0,0,0,0,0,0,0,0,0,0,0,0,0,0,0,0,0,0,0,0,0,0,0,0,0,0,0,0,0,0,0,0,0,0,0,0,0,0,0,0,0,0,0,0,0,0,0,0,0,0,0,0,0,0,0,0,0,0,0,0,0,0,0,0,0,0,0,0,0,0,0,0,0,0,0,0,0,0,0,0,0,0,0,0,0,0,0,0,0,0,0,0,0,0,0,0,0,0,0,0,0,0,0,0,0,0,0,0,0,0,0,0,0,0,0,0,0,0,0,0,0,0,0,0,0,0,0,0,0,0,0,0,0,0,0,0,0,0,0,0,0,0,0,0,0,0,0,0,0,0,0,0,0,0,0,0,0,0,0,0,0,0,0,0,0,0,0,0,0,0,0,0,0,0,0,0,0,0,0,0,0,0,0,0,0,0,0,0,0,0,0,0,0,0,0,0,0,0,0,0,0,0,0,0,0,0,0,0,0,0,0,0,0,0,0,0,0,0,0,0,0,0,0,0,0,0,0,0,0,0,0,0,0,0,0,0,0,0,0,0,0,0,0,0,0,0,0,0,0,0,0,0,0,0,0,0,0,0,0,0,0,0,0,0,0,0,0,0,0,0,0,0,0,0,0,0,0,0,0,0,0,0,0,0,0,0,0,0,0,0,0,0,0,0,0,0,0,0,0,0,0,0,0,0,0,0,0,0,0,0,0,0,0,0,0,0,0,0,0,0,0,0,0,0,0,0,0,0,0,0,0,0,0,0,0,0,0,0,0,0,0,0,0,0,0,1
outputCount=10
weightIndex=0,1010,51110
weights=##0
##double#51110
   0.4826810716,0.5287723639,0.3512917438,0.4565584684,0.2433321363,-1.0715802936,-0.3510178477,-17.7585004471,-0.1989090897,0.6196426648,-0.0978969121,-0.7443450568,0.2673819336,-0.1464224368,0.0035658352,-0.8725801423,0.0138397327,-0.5336462726,0.6338377068,-0.0614537974,-0.0737858294,0.9415672829,0.5834420725,-0.6799844163,-0.328613793,-0.4201888178,-0.010636829,-0.2401322615,0.2959359706,-0.3893671913,-1.2070197902,0.4812917398,0.0587728168,-0.2176211614,0.5464234421,0.0992381656,0.264140683,-0.491118056,-8.5896762532,-0.9037920856,-1.0481488919,1.099346262,-1.815903467,-1.5635797311,-2.3532074228,-0.3512146501,0.2290237341,-0.5684143162,-0.0906960534,-0.9695860258,-0.4144484763,-0.1009584135,0.1154960289,1.1698457361,0.5774562128,0.4454949126,0.4083659695,-0.119282289,0.8605562029,-3.2646388295,-0.8408026722,-0.3759215242,-0.1380586432,-0.6336193975,-0.3575342765,-0.0134594711,0.3893773142,-0.1906277997,-0.6730049858,-0.6361253136,0.8241229197,-0.0756938007,-1.3715359935,-6.1992192805,0.2359139492,0.3602397905,-0.084399367,-7.6126635268,-0.6001367572,-1.122260982,0.7584928869,-0.5267094292,0.1284938419,0.2879449537,-1.2181850683,-0.436666348,0.7107713885,-0.559990666,-0.6798462124,2.8224641135,-0.9403575907,0.4742173099,-1.2844036207,-0.1622250073,-0.2235957435,1.4886303781,0.7005081988,0.1726275816,-0.6439047893,0.8034137017,-1.1166082373,-0.0979714067,-0.08301454,-0.3728788911,-0.3032518898,-0.3067289706,0.1859931079,1.1602031568,0.1192625662,-0.0860673118,-0.7634665038,0.150120436,0.3388802885,0.1850826732,0.6731106463,0.6093758921,-0.021053942,-0.3690638836,-0.9699801348,0.4813676426,0.3818730258,0.509430956,-1.1942697153,-0.24597484,0.4224834121,-0.2259229409,-0.5029950981,-1.0513796079,0.7172473814,0.0588874489,0.6405529646,0.4825109411,-0.4914114939,0.3852545773,-0.1648964043,-0.1812918065,-0.3055189768,2.3921560794,0.5549946828,1.200529588,0.8731285851,0.143986625,-0.4733867926,-0.2947981256,-0.9191458655,10.0472484627,1.1066945611,-0.5204364248,-0.0292274661,-0.3116161351,0.4511567929,-1.2497760217,-0.8443464952,0.2222166602,0.1584644592,-0.6232020405,0.099758454,-0.7049620659,1.2073434401,0.268829654,-1.1624454389,-1.8546289207,0.6215702832,3.7779184687,-0.7973599685,0.2572677434,0.6426677007,0.1038395708,-0.5683275147,0.1554901463,0.4791404162,0.6367747578,0.7031960104,0.7462548117,1.1037263488,-0.5118303422,0.5489331145,0.453074896,0.7016957767,0.8478633847,-1.6417320074,-1.1032941618,0.8022703005,0.5329191934,-0.5471834938,-0.3951096709,-0.6062368578,-0.1595344376,0.3033308783,0.8129343687,1.718870521,-0.1055828619,0.4102525164,0.3310079994,1.1727983145,2.3258016007,0.7828470054,1.1593121938,0.7666246813,-0.3792289466,0.7680051037,-1.6876929581,-0.8863029884,0.4539423973,-0.4517850061,0.6338163943,-0.597423452,-0.0785790166,-1.032227311,-0.0373506721,0.2710637181,-0.2987873766,-0.0811013828,-0.1668111827,0.142883021,-0.2826154936,-0.4998184648,0.6514443186,-0.7958548896,0.7906362166,-0.720134364,0.0293343147,-0.4282475232,-0.3168158404,-0.1578262282,-0.6033684313,-0.3949267511,-0.3471486727,-1.3396277692,-0.2878907586,0.9017392023,0.1647265698,0.7744432562,-0.0456092654,0.3123300284,-0.1530832591,0.6544887791,0.8033538155,-0.3635578502,-2.3594451097,-6.0680751996,0.1609710509,-1.7578479433,-0.3345637684,1.5430442761,-2.2222464094,-2.4506355156,-8.3504335643,-0.1345604609,0.3482254617,0.1911125344,-0.301682066,1.052776772,-0.2887641462,0.2983165179,0.1563430381,0.6410504367,-0.2958100986,-4.1096951732,-1.6060067363,-0.0757353403,2.9558132834,0.4969040606,0.0607144333,-1.6060039049,0.8796904725,-0.5027469802,0.7137021928,0.414359014,-0.1752683566,0.3071879751,0.3747700671,0.4191278111,-8.6066783323,-0.8866686005,-0.0199771395,0.4448163418,-0.2611948704,0.5607543324,0.2273716702,0.3129790271,-0.3010305292,0.3894412227,0.2810528419,3.2241849386,0.7601339774,-3.2389988984,0.20111791,-0.5943632185,0.1916603164,-0.4001063202,2.382172418,-0.4807674314,0.8630962509,-5.9646976845,-5.4223477979,-0.8223870044,0.2713827144,0.3137164497,-0.1678187389,0.0380757209,-0.1007648901,-1.4289907629,-0.2363012716,-0.4459946675,0.3875117337,0.6338739327,-0.5675430974,0.6407718675,0.0552554362,-0.0119946992,0.4913147062,-0.1858426774,-0.5941939994,-0.1335322735,0.198919467,-0.5279292307,-0.3323555863,0.0413656103,-0.7412912667,0.6305648769,-0.6947267867,-0.5401515271,-0.3337431746,-0.0244026824,0.7308836671,0.311265913,-0.5249171222,-0.429728493,-2.2576285033,0.1666725785,0.5809479526,0.3398726492,-1.654028648,0.3627220758,-0.6258785828,0.7849323854,-0.3071610645,-0.3395919502,-1.1453742306,-1.4096228506,-5.4472413524,-0.3950524565,-0.5890313116,-3.5551397238,-3.0136465924,-0.9015820512,-5.9626772442,0.6593885061,0.2387334915,0.2568920693,0.4196875662,-0.0129686456,-4.2851898672,1.2983008424,-0.0096810053,-3.7703746878,-0.7647007742,-0.4539376163,-3.3860480966,-3.0548140254,-0.4573795454,-6.4689238338,-0.4907404354,-0.3140034006,-1.2927810045,-0.2494593609,-0.4372413227,-0.3637416643,0.6375381124,-0.339328464,0.3636957157,0.7208359409,0.0966186193,-8.3172750504,-3.8451632736,-1.5545209362,-0.0477608836,-0.4858616396,0.4798132916,0.5595112215,-0.611092308,-0.416353925,1.5998347984,-0.5065073261,-0.856913701,-0.5384836913,-1.8386488865,-0.1633669046,-0.2864302032,0.3822444513,-1.2015983913,-3.0573209662,0.0638370108,-0.6395560491,-16.0590970125,-1.1858619929,-1.0786457196,-3.7762823441,0.1897707739,-0.4871646199,-0.537403993,-0.2144447702,0.7144876757,-0.1705856044,-0.1997879244,-1.2127058773,-0.5699364157,-0.40619055,-0.4144559687,0.9045547632,0.1736215203,-0.3246342922,-0.1072593118,-0.4447341918,-0.3613883595,0.4833214706,0.2319882259,0.338209792,-0.1408734286,0.0409607041,-0.8190535455,-0.1697395191,-0.5112921363,-0.4540638607,-0.4293711461,0.1290296476,-0.318838592,-0.1777349518,0.2382541779,-3.4553620946,-0.9982113001,-0.3793514731,0.2295935567,-6.1965900606,0.4021358622,-0.3257899385,0.733924451,0.0571717315,0.5569561098,-16.4956370135,0.221756083,-16.4017451872,-0.1013286106,1.0415654371,0.603791754,-2.9876707514,-1.5570184696,-2.7713789108,-0.4877943557,-0.3764532712,-0.1039293875,-0.0694392772,-0.4729846437,0.7492200082,0.1288627782,-0.0307878133,-0.0659131415,0.4815098071,0.1124230423,0.0725480525,-0.1483671243,0.5896890431,-6.3378491131,0.3809734671,-0.6746338104,0.7879700627,-0.2279148337,-0.0783218918,-0.033475727,-0.1994997317,0.5127354667,0.3816887148,0.137583073,-0.7631346615,3.6469012261,1.3912640161,-16.5209082766,-0.2970288411,0.2254827656,0.5255398875,-1.0888467947,-0.792993125,-0.2643103771,-0.2669288879,-0.8814318699,-1.2857564611,0.7703147976,-1.5220544813,0.6057831645,0.8747110657,-0.7193267847,0.122632593,-4.0651715774,-0.068988181,0.2727757442,-16.545190562,-0.4522354356,-1.3285306992,-4.1302220907,-0.7622495067,-0.3079927962,-0.1649231619,-0.5311719945,0.7121692713,-0.7032294573,0.6948173267,-0.2490872096,0.3551162418,0.482303733,0.5099605286,-1.3065609735,1.2331262986,-0.0410994235,-0.6695751448,-0.2444178905,-1.1985729789,-0.6638133682,-0.1803904918,0.4769985364,-0.0965399878,0.0285494343,0.106434715,0.196054,-0.1951058262,-0.0231702189,-0.096142489,-0.0646475495,-0.4863225278,0.6815741652,-0.5749276899,-3.2515736829,0.2814434808,0.6180128521,-0.126991878,0.4971418927,0.5369409414,-0.3261816128,0.2323535912,-0.6846227056,-0.4110820593,-6.8311402332,-0.0718838689,-16.4711021335,0.1895794583,-0.1150269916,-0.789610489,-3.3016626659,2.1555292536,-5.7614345793,0.581878829,0.5552313755,-0.658348265,0.3285048886,-0.9210922341,-1.7883846193,-0.0562798541,-0.3900563321,-4.2810121944,0.220228651,-0.0212240923,0.8301218662,0.2185595071,-0.6278744536,-5.1492904932,-4.5123899712,-0.0828942871,-2.0154535212,0.4477063306,0.4405842885,-0.3674340576,-0.7923432969,-0.4330309039,0.0045496129,0.1449070593,-0.4944249586,-7.5890856591,-1.7267793069,-4.1244139927,-0.8196917118,-0.0692686115,0.1854088176,0.6643859855,-0.0200138872,0.0607271888,0.2119657012,-0.613050871,-0.303942339,0.1160314226,-2.9278184406,-0.1012801918,0.8803588504,0.2227571461,-1.1140059698,-3.7180362471,-0.1361705949,-2.3431264253,0.4627743611,-0.0942604812,-0.6356438423,-0.6456534059,-0.0114145437,-0.5267572642,-0.0985310507,0.2268696543,-0.0063337403,-0.8902756996,1.0093059822,-1.7877331486,-0.2469381934,-0.1416614754,-0.0396436718,1.1887009027,-2.403586769,0.2040443275,0.8802975987,-0.0870398407,-0.0718254718,0.4097376166,0.0146996348,-0.3761138323,0.5544516429,-0.224417039,-0.4392849408,-0.2885818619,0.0178341365,-0.4438238263,-0.0167720738,0.0361026051,0.2821163033,0.3685601745,0.3329493446,-3.2772983057,-0.5001787756,0.6036136027,0.4554545488,0.6545991332,0.8576394278,-0.348492709,-1.802843788,-0.5462018469,0.1854599371,-15.4697158287,1.2458548481,-15.7094596642,0.2926098769,-1.8265105752,-1.1023841688,-4.0415957806,-1.4103923969,-6.5827578157,-3.9929346306,0.2456150988,0.0970250063,0.428966064,0.1340798907,-0.3801175995,-0.5425871399,0.0089946255,-3.6066854438,0.1524926661,0.3787159071,0.5593910568,-0.4506366428,-0.2737505554,-6.2170746435,0.5145413312,-1.118022431,-4.1871441973,-0.7161037382,-0.3522115561,-0.0306195066,0.0279600108,-0.3614005106,0.6140099433,-0.6184021226,-0.4500298271,-10.8820436876,0.3197202788,-4.501834426,-0.7169055867,-0.2824193023,-0.1765260268,-1.4253516339,0.2115398517,0.0026961552,0.1005477971,0.2165341631,-1.1579439072,-0.3079992713,-2.7161526,0.6809248802,0.6057771708,0.3691294062,0.4763015079,-1.7711685057,-0.084875211,-2.5618200605,-0.1130773805,0.3088455345,-1.7327959878,-2.4355382546,0.9508719217,-0.0360679964,0.5056557999,-0.0738548983,-0.9510161287,0.4709073227,0.1501749141,-0.0308820925,-0.1541084323,-1.0201525866,-0.0874527407,-0.9928512382,-2.3175698518,-0.085094363,-0.5269531593,0.1759861619,0.4835049719,-0.4716564599,0.1076501787,-0.5999272453,-0.2062266836,0.3511781201,0.1499197586,-0.0505089186,-0.0374989729,0.0995262282,-1.5167736,-0.0591954004,-0.4975757137,-0.4089942819,-0.4369126452,-1.9485492126,-0.4612202743,-0.242720821,-0.4073384051,0.4073368623,-0.1905591853,0.2763052277,-0.973234661,0.2730737699,-0.5274045025,0.9602139378,-1.8136260207,0.8564181725,0.2075729289,0.3167275842,-3.7093493993,-3.4783100189,-4.897490903,-4.1829356432,-3.6448683525,-0.0594707519,0.4444393611,-2.4318718882,0.3491841486,-5.2343502371,0.732501887,-0.0146472738,0.2583986415,-1.9289667047,-2.5724425791,-9.603374481,-0.9385839703,-0.0097784984,-1.8160967088,3.8392521614,-0.0693572889,-3.7699922912,-0.0412087495,0.7238295536,-0.253684658,-5.8367101883,0.5852433488,-0.5327267972,-0.1635714307,0.1270265524,-7.1131478649,0.3988446402,0.6299042349,0.3960423184,-0.0908973502,-0.5054720445,0.1068264771,0.2722168986,4.3276349274,0.1837406245,-1.6840752049,-0.3869072255,-0.302849675,-2.2533371631,-1.9777402998,-0.1957724594,0.3830268734,0.0848818257,-3.2643613289,-0.2577764369,-0.1396622431,-5.4775744445,-5.7975077837,-2.3080645666,0.2656738076,-1.2065285449,-0.0792687101,0.543256929,-0.1925569357,0.3575129342,0.6080745561,0.3879732634,0.4822663162,-0.3503232654,0.5852118633,0.1186283167,-0.7553279828,-1.4929742524,-0.3314354364,0.3111876885,0.4106193855,0.1474318116,0.5390106177,-0.5186519547,-0.3217573376,0.2888093418,-0.2575617554,-0.8117442364,-0.1919629499,-0.3021275463,0.2057924621,0.5562996025,0.0754630274,0.6330628122,0.0326260875,-0.5818439789,-2.5509677737,-0.6293326549,-0.3065762776,0.258994869,0.2012409166,-0.5831596468,0.2831263273,-0.0509865944,-0.4559074164,-0.1739675154,-12.9753154981,-0.1241333804,-16.3634657301,-0.2926099642,-0.6175569933,0.0772139188,-3.1810361715,-1.299555551,-3.354536954,-1.3380413094,-0.1159020781,0.1671396955,-0.4715604687,-1.0102618785,-2.0133188232,0.1240688179,0.3329243606,-0.1174182574,0.4339781084,-0.3671989876,0.0722412107,0.0217018543,-0.2309553832,-5.6599620942,-0.9425184268,0.1772508411,-2.6029399541,0.4102666145,-0.2015816846,0.070436378,-0.1084521394,-0.5018317455,0.4866168801,-0.2606852512,-0.1971973967,-3.2976265469,-2.2352709904,-13.5312597034,0.1527262899,-0.0864900096,0.5682205236,-16.1245934335,0.1055189517,-1.1955405052,0.1635561853,0.5803555208,-0.9055128799,-0.2497708014,-1.3662604146,0.5794608671,-0.607158446,0.0608317204,-1.1690062369,-3.6074493098,-0.2977699169,-0.3934567664,-5.161780038,-0.6258876298,-0.442365513,-3.9333588631,0.1684968423,0.1601413555,-2.3871146618,0.0931479495,-0.1113732637,-0.7387488101,-0.3497265742,0.3221896,-0.3611728483,0.1736286823,-0.3938876076,-0.3266120194,-0.5342682516,-0.6705888747,0.1363332687,0.0650059201,-0.3103661396,-0.2564908029,-0.3086776387,1.0095021919,0.0529871828,0.220682732,0.1299695113,0.4093989624,0.7768015417,0.968440451,0.3670437329,-0.1967589022,-0.1849762523,0.3855434016,-0.2700963009,1.4967774012,-0.3376972247,-0.0189339307,0.8158593231,-2.1161759908,-0.0185626127,0.3475005981,0.8209011576,0.2948372313,0.3239145819,-2.2375355682,-1.5968843334,0.6952267524,-0.6133158797,1.6148469043,-0.4678510342,-3.5000468293,-1.389365568,-19.3356722439,-1.7573754798,-0.3386011609,-0.3100195294,0.6629898982,-0.5584525311,-1.5764822852,-0.2994854428,-0.1421515638,-0.5028278973,0.1426345535,1.023507319,-0.9843248321,-1.093895727,0.704795601,-2.1508874301,-0.1884976872,0.6990174813,-5.653496671,-0.2723055733,0.1271069293,0.2436333763,-0.2375602034,-0.1360762433,-0.3138709839,-0.3889195499,-0.3257758038,-0.6416920476,-0.8631077088,0.8142301708,-0.0093971185,0.3091189217,0.7364542811,-0.4702159868,0.1479979585,-0.3062362821,-0.1072291623,-0.2850178043,0.2187645492,0.5767054506,0.6151479238,0.5154826729,-0.0921676784,0.2512040432,-0.2408770794,-1.7933903988,-0.6634099585,0.5828492624,0.5010456485,-0.1898810166,-1.4075641121,-1.7254967836,0.5704399162,0.0098525956,0.462046036,-0.0818171914,-1.4018675876,-0.3634199662,-0.5524023835,0.7730586586,0.4095790474,-0.3537783633,0.0265174862,-0.4021765183,0.8586184843,0.0704056952,-0.0937366693,0.3328173969,1.2959232614,0.3381070669,0.4042446519,0.2580386819,0.6759001599,1.0059755769,-0.2634073026,0.9311378242,0.4109030985,0.0164741369,0.6552699066,0.0211593325,0.1953782668,-0.361676585,0.5165188129,-0.1394817896,-0.3089415428,-0.1524410724,0.3313811588,-0.365359562,0.3755570785,0.9810613201,0.887634589,0.1350894192,-0.5425005751,0.130910637,0.5947539827,0.2115181634,-0.0354035998,0.452726556,-0.2409469072,-0.2537306943,0.7079772618,-0.5203830815,0.4626891022,0.6466657397,0.5077639202,0.3797756145,-0.0422504463,-0.3477061036,0.3385722306,-0.3673533096,0.2703229376,0.6249811315,0.3467270181,0.5091777048,-0.5438913573,5.8615331626,1.2860800352,-0.3578168137,0.6909114866,0.0147000192,1.4070476513,0.6462583435,0.4185757793,0.2038458869,0.4355640601,0.7175113836,-0.7700557419,0.8079026464,0.016953941,0.8658198842,0.2862878136,0.3251407901,0.0639555372,1.3278559965,0.9848429863,1.3536335436,0.1217276917,0.5775886273,1.3323484109,-0.5120202778,-0.5244753224,0.0203632243,0.9123409348,0.4447765581,-0.5798320584,0.7958932289,0.1618784764,0.7745674881,0.6520654265,-0.4640521115,0.796905092,0.0611314685,0.2082353971,5.5018759223,-0.583386565,1.355231037,0.0203796632,-0.5283608952,-0.5509820083,-0.584744445,0.1942929177,0.2835737348,0.9097552623,-0.0828672578,0.7378824701,1.1882295869,0.3550727849,0.5744444877,0.9282995638,6.083278918,-0.0382537457,0.833944122,-0.5190636204,1.1404593375,-0.203168397,0.463749673,0.9009348852,0.6126821898,-0.240969201,0.2959762189,0.024327589,0.1944860443,0.4172935474,0.9600646474,0.358812251,-0.6060329217,0.7880290205,1.2658803309,-0.0307330298,1.2918721488,0.070569701,0.0898301593,-0.3747144614,-0.4351024814,0.488296242,0.7133615761,0.3562317339,0.7772101506,-0.0022279129,1.1113030614,1.4713897684,-0.2220285536,1.3185921791,1.1176695348,0.6781427393,1.3805764582,0.675023506,0.1088930635,1.1450436232,-0.4946472452,0.7637605958,0.204092826,1.2426709308,0.6532828681,0.1981427199,0.551704134,1.3916943459,-0.189796832,0.6324465578,-0.2240198269,0.6342921438,0.0481883808,0.2521181972,-0.4493706576,0.8014568179,0.5529570618,0.1080358664,0.6982389377,0.4030402036,0.8186800146,-0.4523714121,0.0965083949,0.2490119782,1.3207864009,-0.56683263,0.1143742265,0.035132129,-0.131931192,-0.4594416906,0.7925932212,1.0191530971,0.7575177848,-0.4297354815,1.3854260162,0.9107363711,0.6295830104,-0.0539825607,6.4413475083,0.9953817207,0.1309434464,0.2287279361,-0.5277008513,0.9875901918,0.5544430353,0.8059560772,0.3346204606,0.2457167444,0.526730791,1.2452995023,-0.0866706195,0.7360839677,0.6297961232,0.0694452016,-0.3149187531,0.2019667373,0.1193497556,-0.4246398468,0.222725892,0.0752573807,0.6040222953,-0.3490383499,-0.510360066,1.1125232977,0.1608535423,0.3355672101,1.3900091812,0.2732384496,1.2106874476,-0.5501603714,-0.5476595268,-0.0328740808,0.6293723765,0.3674065485,0.5914882218,-0.0236814772,0.5978923879,-0.5223347214,0.4415814662,0.7076087167,0.7669173021,-0.2586973689,-0.0001150044,-0.0515441874,1.1211152917,1.3178100631,1.0235550167,0.5271204919,-0.5348678819,0.1327364852,0.4322652487,1.235928187,6.2006452316,0.6880678669,0.8528412988,0.3823934471,0.2484442499,0.002833498,0.1551260107,0.685088832,1.1358025386,-0.2329688583,0.3292728267,0.1104482114,1.0932419771,0.2170018566,0.0694622521,-1.7375857854,0.1673326471,0.1771997759,0.8201714546,0.4748862633,-0.1630541919,0.6008991509,6.2347922111,1.0213425468,-0.1388999861,0.5809562979,0.7737839045,1.001809461,0.0091304268,-0.1391178757,0.0512593218,-0.0488768338,1.101601436,0.566075963,0.4230661342,1.0077406508,0.6556405724,0.7501323472,0.257955144,0.2516647124,0.3286576666,0.0185275485,0.3178382584,0.6927871935,0.1412363714,-0.1242510522,0.4780539804,0.1239360583,-0.0819477808,0.1138713271,0.3829044485,0.6511896988,-0.2485215513,-0.1131244671,0.7629529313,0.2729394421,0.7561003785,0.5311833597,0.5116373266,1.3697629586,-0.0480551656,0.424645509,0.9596860432,1.0001274251,0.3881687234,0.5505328125,0.279318141,-0.3011969141,0.124338086,0.6247001368,1.1015867257,0.41316554,0.3038430965,0.8880348462,0.5067293203,1.0735770155,1.3421441509,0.336216198,1.0769072071,-0.3745411678,-0.2021655981,0.5361308327,0.797379314,-0.268096631,1.4400841716,-0.7589098298,-0.4677231846,0.2305795812,-0.1519808258,0.73348317,-0.4151976942,-0.4934760748,-0.1158955228,0.2574484617,0.738543572,1.231255021,0.3547269731,1.3291545388,0.3208581321,-0.4005802157,-0.3602435716,-0.3404970345,0.1347847217,0.5640178497,0.5261087407,5.3462103387,0.3857891446,0.7002886082,0.2436255519,0.260648561,0.9776188295,0.6466686103,-0.4082188989,0.3208972945,0.402507497,-0.5670933558,-0.0731949671,1.0551717718,0.3122263826,0.3000295319,0.5131684751,0.2496439961,0.6230802481,0.4950944108,0.5855203078,1.3420194802,0.4043085351,0.024062332,1.3559297301,0.8034090337,0.0148215304,-0.191879588,1.2905463291,-0.3602918443,0.692034415,0.5263347859,0.5855560322,0.649937251,0.9374104716,1.0967685449,-0.5870019613,-0.0762613543,-0.0120354426,0.946694346,0.3018132943,0.4157762008,1.4024398948,1.2116499135,0.0855376739,0.1889350646,0.7117770593,0.7019713663,0.4694660732,1.3895860495,0.3590466561,0.5342009824,0.7409823587,0.0984855558,0.2833068309,0.7122861499,0.0965336283,0.2729721109,1.1195735785,0.6648396763,-0.4857097008,1.0956571049,0.1826024699,0.6086517275,-0.1760583243,5.6411213502,0.5761286144,-0.4766845461,1.2355867063,-0.193226135,0.2935431059,-0.3748713453,0.685929286,-0.3829508097,-0.4383111558,-0.227846497,0.709602557,1.0896956539,0.9196357088,0.3761414579,0.6986187658,0.4578757055,-0.0579379682,1.4472631128,-0.4675325862,1.1682289619,-0.2682995807,0.9298866034,-0.6041538095,0.6407731842,-0.3818147278,0.7176138975,0.7913513609,0.0736373856,-0.1352485995,0.6961112112,0.2072054754,-1.2262768736,0.3262297104,0.5492170984,0.1768750585,0.4679674872,0.4460023955,0.7867550465,1.2169805546,0.4023224044,0.6537103908,0.2849535802,0.1789756353,-0.2144113014,1.220642183,1.1520096169,1.0646302986,0.20525635,0.2957519949,0.1504033582,-0.519581715,0.143821942,0.4165749155,-1.4631752249,-0.0050398548,0.5613896205,-0.0211289245,0.4443428981,-0.132710235,-0.4390583149,1.3763996937,1.2550698151,1.007384078,0.4860566598,0.1071460577,0.5381900686,0.8702713568,0.3752499952,0.978479903,-0.2530077884,-0.5946817266,0.687216776,-0.4663773822,0.56164519,0.3717058764,-0.3738238785,0.458734695,0.7986871556,0.0131876636,-0.5542028739,0.7056373976,0.0842757876,0.5135209253,0.6593767377,0.6201710593,-0.1632555459,0.2708550467,-0.3856910661,0.5372070434,0.520876896,-0.1760138682,0.6241075632,1.0436840668,-1.001688861,1.0824694554,0.2272579587,0.5908977008,-0.2544406238,0.2354047625,0.1448345524,-0.4690979602,0.3755609945,0.1787819332,0.123507715,0.7858414249,-0.718195242,-0.174106231,0.9584044195,0.4660011105,0.2146195736,0.8961017274,-0.2530272381,0.7390727077,0.3766046341,0.1233263889,-0.5935636012,1.2679824361,0.7581725244,0.8788299869,0.6196429089,-0.5111369495,0.6283750781,0.0414267042,-0.1846517365,0.056328741,1.0007013545,-0.1515213258,0.2570348563,-0.1231417688,0.4840605306,0.0691980869,-0.4677190721,0.7876167303,0.8829795303,-0.0319062452,1.1765519847,-0.3182362454,0.4156413893,0.7308092724,0.3422196936,0.6244455477,-0.8998999488,0.4377068344,-0.5661728961,0.7554896868,0.0368184062,1.3035596688,-1.1708734284,0.4063346136,-0.2337207721,0.6099506447,0.1746610699,0.1539181134,0.9344366748,-0.4245111086,-0.2138662413,0.9208974207,0.2641596646,0.1398378643,0.6952139751,0.2295646183,0.4561432431,-0.4789242435,1.1643281488,0.8021878052,0.5796357505,1.1382427329,0.1518605252,1.1494499595,-0.4487084553,0.7484624269,-0.3712252769,0.0111822119,0.2560444935,0.4014073504,0.5318913751,0.4556974431,0.1827845492,0.705312864,0.4573547089,-0.453527048,0.5103075699,-0.1606691362,0.0544496084,0.09681325,0.0756952347,0.5553689958,-0.0478866829,0.320473783,-0.258753749,-0.0777804247,1.1545865658,0.5463599827,0.7564168994,-0.4776867887,1.2699808649,0.1741065137,0.7188843959,0.2059551017,-0.5389651997,-0.9611697349,0.0716050533,0.2374432719,0.3214919163,0.0371335288,0.5975105201,0.9165578818,-0.2911639306,0.4985432244,0.2106771482,-0.5497215401,0.2785484151,0.7601840396,-0.1058645979,0.3154345138,0.1108535339,0.1341236043,0.6059172,-0.4729627909,0.3237044074,-1.7109120118,0.6135687742,0.5811509562,0.1790754752,-0.6161194539,0.5710382165,0.5035128045,-0.035226166,-1.7504192367,0.5191481598,-0.2054865527,-0.0648664805,0.8968423757,0.2309689895,-0.4749168865,0.0517630084,0.5522718463,0.4391823,0.6967851995,-0.6282271715,1.3874765941,-0.1350121704,1.1091114831,0.5750361187,0.9798309672,-2.6771192765,0.4936497603,-0.3448583878,-0.2238648275,-0.476107007,0.6890793388,-0.1903680605,0.0413815924,0.5616014502,0.7042181462,-0.2980397596,-0.5625864139,-0.0549849375,0.0649800256,1.0860563578,0.1693848052,1.2089991223,0.7234206497,0.372502197,-0.1324291753,0.3687126946,0.3729629583,0.596720363,0.2008494239,-0.236248988,1.1615697664,0.0496796649,-0.1147429753,0.6664408003,1.2909792497,-0.2824750044,0.7829074779,-0.6445881653,-0.7565711939,0.5314352143,0.9826815529,-0.0908694666,0.2007200546,0.4872756034,0.7908808894,0.0248644512,0.655817425,1.0058420711,0.0020066511,0.7817532629,0.2895935978,0.5319479895,1.0465534431,-46.8721835237,0.7499027729,0.7190539886,0.2686694028,-0.2383275055,-0.3881307695,-0.1845660143,0.6892972496,0.3815697799,0.0008122456,0.2409296329,-0.0262233164,1.0016263364,0.3766278887,0.3519751461,-0.4037851784,-0.5628347421,-0.2043922652,0.203635943,0.7434526008,0.5805966598,0.5978586607,1.3713868712,0.4799527788,0.7143790568,0.4538396657,1.219235412,-0.6730489763,-0.2217605116,-0.2791468001,0.7969342824,0.8794627827,-0.3455334334,0.6377102729,0.3358583116,-0.0530812933,0.9426962456,0.579520226,0.3873167928,-0.3124912403,0.1152792091,-0.6014318689,-0.5872175688,1.3510993926,-0.5184349887,0.4682895999,0.3707149578,-0.0391734406,1.3806319572,0.1219517306,0.4382496791,-0.0609127005,0.3166491372,0.0751237484,0.5961442717,-0.7803728713,0.8060559626,1.2052994454,-0.361395038,1.3244818906,0.5120975106,0.4790327256,0.4494836638,0.9267751959,-0.3172628661,-0.8997349604,0.0447268124,-0.2324449601,0.5359998481,-0.0017100874,0.5267647792,0.5673690701,0.2557926206,0.7058593566,0.0587658757,-0.4291936259,0.4312383529,0.6696632758,0.637862305,0.397054516,0.5379147584,-0.2505863355,0.3005259578,0.6244543409,1.3386092696,-0.6106738278,0.7967707274,0.4438373259,-0.1056654382,0.8623339569,0.5762518822,-0.2506022413,0.1770080907,1.377053331,1.3105002716,0.5242481464,0.71083386,0.8712343191,0.825954509,0.7196559157,-0.5951009968,0.6723446721,-47.125617714,0.471652961,0.6353915742,-0.3773211719,0.4995967896,0.3518688485,0.995430283,-0.0126926028,0.1861908009,0.8224483603,0.9392036213,1.1008409398,0.0769437073,0.546139817,0.5610938355,-0.2102219741,-46.7164552628,0.9879018679,0.119585321,-0.2106293195,-0.7967120413,0.6194787894,0.0377420592,-0.2573063163,-0.2920533222,0.5902523321,0.4616796497,-45.9139277216,0.0751132826,-0.1883352532,0.9989830923,0.6205042752,-0.3055953008,-0.0917875769,-0.4026945616,-0.1768106445,-0.104713196,0.0546525704,0.7792278386,-1.5656964536,1.0022914411,-0.1349908503,1.2015394087,0.7499530024,0.0216473667,0.6478020194,1.2023205933,-0.2552237264,0.1951092108,-1.3119847954,0.4213494889,0.6989065862,0.0516074023,1.2851998134,0.7808119258,0.3504298199,0.7274419029,0.4686255955,0.1119416128,1.1511966207,-0.4330846099,0.1770989513,0.1933760211,0.7989262318,1.2754788987,0.6619962597,0.9813821271,0.006478514,1.0745427683,-0.172294032,0.1626043937,-0.528832232,0.6842982475,0.1605653365,1.4097657974,0.2262219551,-0.3041445131,-0.0809452501,-0.4902817336,0.1024593743,0.9504312672,0.089623306,0.8899325312,0.4837339731,-0.4638625254,0.684561758,-0.3354050676,1.1743999982,0.9806720255,0.2556714454,0.555021856,0.2485714961,-0.4375059887,0.2175953803,0.8052585944,-0.1159122743,1.2582017948,0.5188065733,-0.3916859206,1.2578525473,0.590467852,1.2647462311,0.7471789706,1.1564412311,0.6762874625,-0.0041715666,0.1395867786,0.2597242308,-0.489657988,-0.2715981661,0.3162357935,0.6277431382,-2.9281728277,-1.1593257013,0.2365621561,0.8193105154,1.380416651,0.2312650218,0.1179952539,-0.2598968558,0.5298381532,-0.4809046279,0.1671303457,-0.0611770955,-0.2621528072,0.396362936,0.2169649731,0.9978298025,0.708218239,0.1599316187,-0.279659704,0.2110056723,0.1181092604,-0.3281928657,0.3404644795,0.3661451297,0.3583714574,0.7155235268,0.5275263351,0.4955919843,-0.3693069976,0.6095632416,0.0079090733,-0.1815793958,0.4727838506,-1.6790167699,1.0915694301,-0.0036095465,0.0921211938,0.5247028029,1.2087017836,0.0995131456,0.0417816625,0.0149755202,1.2008691936,0.2833795892,0.8897403215,0.0970708747,-2.932282931,0.0895039979,-0.1015994266,-0.2217945794,-0.4021223249,1.2494218957,0.181848067,0.644339711,1.3759243927,1.2245852046,1.0758995258,-2.1844280691,0.7354827049,0.0274237481,0.2507053331,0.1077312335,-0.2571754804,0.6192770344,0.4660712171,0.4214788267,0.6316699748,0.0122675731,-0.3902062263,-0.3810320208,0.0936601397,0.5492749692,0.6382143972,-0.0280077879,-0.5300648494,-0.1135902452,-0.2010018251,0.0691523107,0.798861895,0.7679316582,0.1286399408,-0.7019574984,-0.6390113334,0.656828878,0.169859685,-0.4618121421,0.3566250061,0.7455383975,0.8356152965,-0.0509783525,-0.6258760726,-0.261825772,0.7723300339,-0.6105783796,0.3949840772,1.1690434754,0.3488046607,2.3600876193,0.2150004901,0.5964982642,1.054886672,0.7459201614,-0.1798034982,0.4483231653,-0.8407746498,-0.5044348725,-0.735684474,-0.8063539837,0.0486994409,0.661645661,0.1630545477,-0.3422873572,0.653100984,1.051595262,0.2855691597,1.2533748929,0.2178190796
   -0.7912723125,-0.4850787323,0.389168059,0.1302967602,0.8734369302,-0.5024520979,0.1062819414,0.1933157856,-0.4401213039,0.568304493,0.0059470383,-0.2870278828,0.547528575,0.6086151853,-0.440331685,0.1489600385,-0.0355591252,0.4478934283,-0.1164962508,0.338793634,-0.5765685542,-1.9792106726,1.5843035117,0.3284591794,0.9788530219,0.6036760431,-0.4537510231,0.0664340274,1.0943275272,0.6744069594,1.3197802205,-0.2740856057,0.4796786203,-6.7002073569,1.028709624,-1.1082141588,1.2727379963,-0.3994369244,-0.3421714958,-0.5394585472,1.4007022397,0.7486962711,1.3408926747,1.3967653823,0.3033216251,0.5680650706,0.5597733109,-0.7696635417,-1.7676105006,0.8830960161,-0.2413551449,-0.3108713724,1.0474496526,0.193600405,-0.51242718,1.1900856583,-0.6830317553,0.4056149429,0.4938054015,1.0125241991,1.6735336815,-0.5840813606,0.241990547,-0.1757429171,-0.4021993633,0.0688948688,1.8216721756,-0.1754880217,0.8577748249,1.4085773192,0.1862568806,-0.0854580077,0.4866225739,-0.9609720207,1.2808474472,1.2055925272,1.2409975253,0.5218318311,1.2113154423,0.7074010813,-0.647398982,0.6618109858,0.2617937666,0.8420813573,-0.0804084722,-0.6291282262,1.9126721838,0.3180536721,0.575452971,-0.3676886625,-0.2880280019,0.9703319435,-0.4763622231,-0.4442821069,0.395151468,-0.4758087786,1.3395118311,1.1684357245,0.6758637142,-0.630417911,0.1403401393,1.2643686869,0.887493272,0.3777458213,0.5960141554,1.0634467455,0.1566618295,-0.3736957436,0.289612039,0.8890959724,1.4766505586,0.500694973,0.4308123531,0.9231334006,-1.2412042873,0.7393130642,-3.9151187927,0.8558574837,0.2811897054,0.6858955658,1.082404756,0.5969863336,0.1099635339,0.8895864318,-0.8281286697,-0.0459023349,-1.0580976955,0.0812989609,0.3803011854,0.9114924308,-0.0127768441,0.5826310739,0.0073945046,-0.290931183,0.2581459832,0.8233135038,0.8906663298,1.4634109951,-7.2616033574,0.5504530853,0.1790487352,-0.4155383505,0.3752550688,0.2953287925,0.2082464921,-0.4485725515,-0.0937839371,0.9487782167,0.4315378127,0.4600205488,0.6656575605,1.1007546473,0.3993382662,1.2788297757,1.3174942995,1.1253347523,-0.5502606351,0.133149358,0.0993512519,1.3983172978,0.0218347009,-1.4135867126,-0.0050606253,0.603551244,1.0049385243,0.5651511864,0.4180465401,-0.4630712814,1.2430116108,0.0455116692,16.1246372362,0.4897569956,-1.1677151012,0.245269726,0.5169963073,1.4467764891,-0.2465568629,0.1349385526,-1.3063987508,0.6283196294,-0.7509781829,0.268668435,0.1870603073,0.6435378447,0.0855739734,1.3785981308,-0.1934080463,-3.0539316147,-0.1843580762,-0.118449781,0.2542021091,-0.1244843508,1.1046387134,0.6425210447,0.0107876319,0.7519476622,0.6480935358,0.6318578188,0.1352905892,-0.2625013099,1.0853700318,0.2454669645,1.8176324759,0.7126001036,-0.2761323151,-0.5363069231,0.255268166,0.8825857355,0.9284089931,-0.3417078279,0.3649356683,0.6566086491,0.1272979718,0.5903279749,0.84043866,1.2168692417,0.8859682031,0.4773198768,0.1244417655,-0.4766067605,1.1161246968,0.1616544978,1.0503741308,-0.5871262624,0.9914012713,0.2335647498,1.3708218567,1.1315597613,0.3606094574,0.4597770336,1.2372374402,0.3368458225,-0.8335396051,0.843309759,-0.5149138994,0.7674842573,-0.2802836748,0.5469239345,0.4614975517,-0.6698480724,1.4122306864,0.5011378228,0.4772589026,0.5940668254,2.1772122065,1.0425204465,0.4053965239,0.6060066987,0.9729233959,-0.2009043584,0.6032463384,1.8776547442,-0.5345123994,-0.1276275365,0.2455920513,0.1092892351,0.6459011588,-0.453835139,-0.0873285537,1.3989582806,0.1099421235,-0.8453799167,0.6928810956,1.2972724675,0.3747800887,0.4207907747,1.1674212031,0.349132863,-1.2046151476,1.3978004658,0.0419702405,0.6648598513,15.8103570767,-0.4241875671,-0.4209334055,-0.5031805675,-0.1208779546,-0.3774809983,0.5590698811,-0.0345745657,-0.9915686125,0.882964403,0.1562557622,1.2681882033,0.408700913,1.3593902877,0.7981447435,-0.6102089771,16.5045788206,-0.0932433234,0.7387970419,-0.5101677807,-0.27083328,-1.2045920312,-0.1367144856,1.3791300924,0.3915882362,0.1772385076,0.3656655926,16.1095357667,-1.9423074361,0.489293933,1.1541682021,0.5618001292,0.3624714184,0.3139881588,-0.7150138841,-1.143980846,4.4855736377,-0.499514313,0.5652262844,0.2653350164,1.3029829311,1.4585459581,0.0973281726,0.7122266993,0.1549691637,0.5597022079,1.1311658005,-0.545903573,-0.3156964514,0.7688711207,0.8288660614,0.5208081304,-0.6631200293,0.1912922413,-0.5873593995,-0.3898011879,-0.2674388714,-0.182612179,0.2329478359,0.0362649266,-0.0277355951,0.3086189936,0.1913213164,0.2913190545,0.262144621,1.3143398947,0.1560380193,-0.1457259229,0.5977422977,-0.2202999283,-0.2559851307,0.5778979908,-0.4502915414,0.2621177515,0.5755356726,1.3197804597,-1.1036575611,-0.2234986667,-0.243528587,0.6628494422,0.7636927648,1.2042433798,0.6509989349,0.0445139392,0.3254978594,-1.093847647,0.0406944957,1.3312801174,0.0202449024,0.6572326695,-0.7013939477,-0.5752866312,0.8933302278,0.1692709804,1.19685696,0.4506731149,1.3559380031,0.2725523406,1.1135840959,1.2722555654,0.0958298701,0.3297273498,-0.3572006865,0.8865925179,-0.2371906772,1.0585596246,-0.8694403155,-0.4106787078,-0.4179731755,-0.4469446498,-0.0564905249,-0.6313955577,1.6347774847,1.0102911459,-0.4090499455,-1.0756908279,1.1282993838,0.7494928331,0.4903485725,-0.7685264714,0.4514223685,-0.8784088247,-0.7283061604,0.2202379577,-0.5086025838,0.2493632322,0.2930202815,1.2852729521,-0.3141146265,0.4692279547,0.9170770448,-0.2485388846,-0.747217943,0.3623742026,0.0503892666,1.148620191,-0.5403921273,-0.7018387564,-0.002534301,-0.2392771165,0.6698678095,-0.3202225618,4.7252573145,-0.5076155127,0.3276398659,0.5658292907,1.3468529774,-1.0215903263,0.5042305551,0.2591035914,0.6014439893,1.1208884638,0.4594217899,0.6571243168,0.5584769035,0.9832996074,-7.2737856175,0.6099205977,2.9275431456,-0.4665994403,-0.6837605492,-0.6169391261,-0.546626046,0.0697317098,-0.600479542,0.4042345932,0.5796169186,1.0027804927,0.2539855564,0.6779116239,-0.7159205873,-0.1732372135,0.5668984617,-0.3617155941,0.7556627569,0.1140200971,-0.0044521007,0.4186835777,0.3761805678,0.2229094162,-0.0695275056,-0.4757519089,-7.5761487945,0.6037676113,0.2347120608,0.2619795448,0.271714205,0.0610693891,-1.2438551303,-0.1523679142,0.4528748783,-7.0654927082,-1.598922731,0.4620715026,0.3746507111,0.3884627311,0.3150569116,0.8649599979,0.187060718,0.4818713967,0.305149956,0.2871169952,0.6069071546,0.3815003433,1.0239025029,-0.2019876814,0.7800878044,0.3388876752,0.6104380088,-0.1607547301,-0.2827383582,0.5202370797,0.1066326662,0.2517870083,0.8867736948,0.8871979403,0.3711204549,0.2053931926,0.2579131291,0.3892356213,-0.3879350991,0.3017920267,1.2312887848,0.6825709503,0.0761049753,0.7070194645,-0.7724023406,1.2073819445,0.5547302687,0.509622015,0.5108113882,1.1614852221,-0.1485405475,1.3675178854,-0.1628269874,-0.3156894015,0.3110326361,-0.0971447463,0.213294324,0.3324908287,0.6678395846,0.7117756459,-0.1950963301,0.1452195929,0.2497657366,0.4354182551,0.8253479994,0.92105737,0.1287230601,0.2414943469,0.1131046504,0.3267761205,0.665820642,0.7261169034,0.644651692,-0.1220227889,0.5216685164,0.0367534845,0.9851319001,0.6695094028,0.8631682309,0.7526498282,-0.022940252,1.1841494779,3.3584542857,1.2250982532,-0.1466599669,0.2575413704,0.24368883,1.1353955404,0.0835919695,0.4594226914,0.3138235726,-0.2973328746,0.4960163298,0.3418925048,-0.3661736287,-0.2180668825,0.0657227647,0.5868433079,-0.3487847011,1.1877127945,-0.0265693248,0.2389344869,0.686499876,0.0720902622,-0.026055557,-0.0675625942,0.7653496197,-0.0944464928,2.8587614293,0.7818126885,0.8384407928,0.5879557595,-0.2531690232,-0.3715571245,-0.3365420994,0.1138696326,0.5157097985,-0.4461740216,0.3585062556,0.2386529175,0.2732656093,0.7807102086,0.6274908423,0.640497652,-0.2267872165,0.4717038862,0.6539254554,-0.3213229466,0.3240114409,-0.2509319365,1.1013995985,0.5045921882,0.3548717067,0.3819744289,-0.2867026637,0.8516741449,0.6294436264,0.4816403957,1.0739276325,-0.2872832185,0.2029764161,0.7980819186,0.6097442267,0.7585609128,-0.4199225824,1.2888138462,0.6604193097,0.7699725873,0.325809151,0.378651837,-0.3182935756,-0.0316308442,-0.4528457305,0.6016441903,-0.1566043995,0.77909061,1.0156858252,0.1525225959,0.6325627806,1.3956559198,1.3843196571,-0.1776684801,0.8498340303,0.5430513685,0.373011376,0.0112707024,0.7473332771,1.0819470162,0.1172041495,0.7721829242,0.948263852,0.7808643752,0.3356882681,0.294588402,1.0200561706,-0.5635675691,1.3607706557,-0.0929738536,-0.2518227481,0.5269218649,-0.2665656864,0.2363369358,-0.1082926449,0.4981614985,1.0627179362,-0.6844964141,0.0511820401,0.5137785255,0.7946505865,-0.2420560037,0.5109467649,0.4615846345,0.2303597989,0.4066696897,0.8891197138,0.3457324502,0.4261422503,0.1559512733,0.7756906729,0.6367093142,0.2341409208,-0.5922095003,0.0281170768,0.4412626732,0.1865963612,0.1659430696,1.2404845138,0.474923531,0.7417239278,0.2072848424,0.6998551074,1.2819324447,1.1137229111,0.4008959227,0.4062966649,0.542354517,0.5154977814,-0.9393446935,0.3545433681,-0.3408841717,0.8771323144,0.7952057509,0.0670309217,0.1911803914,-0.6667040332,-0.2430522426,0.1192053305,0.2660500553,0.8775826203,0.6011714834,0.5612892594,0.1102563075,0.1874982195,0.2838434505,0.6077912833,0.8276598233,0.2925734396,1.3765332522,0.1468306411,0.9064969677,0.6050207576,-0.0220947488,0.4768805467,0.1128503453,-0.2566768551,0.5817483006,-0.5620828944,0.7781412765,0.7053074735,-0.4447936879,0.8331366056,0.8088468869,-0.163061137,1.3250580769,0.0773342966,-0.3731538394,0.2511842332,0.5266795894,-0.1977165037,-0.0012486698,1.0518680916,0.876865493,1.3313125463,0.6022382691,0.9295103372,0.1201374201,-0.1438943238,1.2607637935,0.6788854578,0.4782043671,3.330905662,0.299748876,-0.1795428265,1.1840225958,0.1600128675,0.044634549,0.6239596181,0.372258567,1.3114290027,-0.1627311998,0.8497811094,0.9051617519,0.5492852785,-0.2132921688,-0.3828964184,1.1326265342,0.9272394523,0.1447783789,0.2584893109,0.2208327315,0.3840584692,0.2476379996,0.4055228826,1.2605029946,0.7011590058,0.5969316035,0.742275374,0.7999603625,0.5216849562,0.5033499362,0.5082903412,0.7524783035,0.6267838816,0.0956317578,-0.3123958007,0.5567350098,1.2211566964,-0.1521637689,-0.0203913761,0.2554780704,0.3484058697,0.3639420666,-0.475302089,0.9402814314,0.7433907833,-0.1809074299,0.2050909259,-0.3810469796,1.293037449,-0.9183004229,0.8727876536,0.4790890391,-0.3361562073,0.6278414636,-0.0981849052,0.8373948601,0.6879433073,0.5036563594,0.7271974912,0.7047596416,1.199692601,0.126358303,0.3276199585,1.0330598831,0.3658572678,0.0553808126,0.6956241294,0.3871784309,-0.1767484008,-0.2558892093,2.6926631871,0.9124826864,0.2414259994,0.1083478222,0.2415175294,-0.0089046142,-0.5108819801,1.3431175433,0.7429660498,0.5819413447,0.1513380117,0.5510343808,-0.1877805295,0.1911335461,0.0876974812,0.3431924869,-0.3075936876,0.1165080403,-0.0653688958,1.0971944584,0.3907611346,0.0619025287,0.5334455084,-0.1478472396,0.7706737198,1.3698787544,0.4548391373,0.017159773,0.7112860316,1.0508428342,0.2766621154,-0.3674604053,0.5350815899,-0.2283385736,0.2721808215,0.7761856643,0.6887334571,-0.1490106661,0.6005254856,0.4872906865,0.3237445094,1.3573905562,0.7474827904,1.0861858319,0.5801196108,0.7252140531,0.7576509006,0.0715205342,-0.1533239231,0.7229547106,0.4938303231,0.950498595,0.7517752977,1.1867837194,0.5465654821,0.3325157777,0.8919131116,-0.3226215459,0.5743956944,0.800283105,0.0105678867,1.2519007736,0.7759831143,1.0785114644,0.2375251004,-0.4477869808,0.5978845568,1.0701927506,0.7613933337,0.0971549493,0.0753262796,-0.3957399643,0.3091817254,1.1140295274,-0.0818619597,0.7634423886,0.901260559,0.2072369548,0.1476636331,0.8926505719,1.0973777636,0.7420048064,0.5912508082,-0.2867827903,-0.3256274973,-0.1494654201,0.4258301167,0.870364621,-0.0423546859,0.6916599697,-0.3780105051,0.4937140767,0.3205419108,0.2098748881,0.7907764331,1.0280936369,0.1607975411,0.5323202785,-0.0804333227,0.8025766708,-0.2878444687,0.2807372854,0.1760785076,0.3956740837,1.3687860664,0.5576134857,0.3499962092,-0.2415276239,0.9012933868,0.0269059005,-0.4841004077,-0.4291867328,0.2733787954,0.2229678056,0.043431323,0.0063395428,3.7315976519,-0.4171458054,-0.1829630987,-0.2083397144,0.8889259136,0.0914602577,1.3865125507,0.0077760526,-0.289765473,0.2685198179,-0.387769566,1.050594183,-0.3264326285,0.9402056022,0.1230879748,0.9476736616,0.3918450163,0.9101819783,0.1924854145,-0.9987915441,1.1084663547,0.0450175248,2.5850898221,-0.0092820117,0.7475662286,0.5898222076,0.5315860415,0.1606061528,0.2934615051,1.3161524033,0.2570160908,1.0384860193,0.2073230024,0.9197783261,0.1135505795,1.2369995572,0.7358207,-0.4159055026,-0.3461501814,0.3567015286,1.393437415,0.7180508315,1.0924594071,0.1321724904,0.852543997,-0.9581491226,1.1360317143,0.0257338107,0.1211203876,0.393981284,-0.7306899667,-0.0063569136,0.403638344,1.2363339896,-0.526543646,0.3233986898,-0.0943795015,0.5702402574,0.4226077004,0.1902384838,0.0854121765,0.2491702468,-0.5159051453,0.1786198967,0.4661586084,-0.5832112136,0.6408807981,0.0437878969,0.3853791392,-0.5807919198,1.3847911415,1.0677100936,0.2493954451,0.4129534273,-0.1409423071,-0.0389888726,0.5953335431,-0.1862705076,-0.2729120643,-0.2972849768,0.4310621603,0.5293700482,-0.5081998293,0.6317279956,0.1067428843,0.4535717598,-0.4505972174,0.7119552154,1.0535849637,0.0016522231,0.5904941662,-0.1259629736,-0.6145636645,0.3924846963,1.2278067183,-0.5426412506,0.0825378113,0.6938220521,-0.1584847705,0.261085671,0.342667628,0.2661174991,0.981267862,-0.0307196701,0.4912923935,-0.155715941,0.516217678,0.6372922592,-0.4975961937,0.0210881342,-0.2701979942,0.4569180212,-0.6463826162,-0.4811505265,1.258193893,1.3383258337,0.0523778507,0.4406857923,-0.3488833007,0.5414947318,1.0345542945,1.3926543985,1.3366509177,0.5093548967,0.103199489,0.0780778534,0.4760484948,-1.2657425133,0.9221998314,0.2189035435,0.0746802354,-0.6147611316,0.187261657,0.203706253,0.2193988186,1.0955430214,0.0956580841,1.2161910545,0.3038813745,-0.0237102279,-0.1305539999,0.8041135319,-0.4843056901,-0.3926132833,0.0846491676,0.539561288,0.1468791485,0.4546995663,0.2817873829,0.5210888886,0.656642563,-0.019513931,2.5392865098,-1.0582348253,0.8128959767,0.49158804,0.2677462298,0.6572419199,0.1666197223,-0.396168757,0.2798666168,0.3250721465,0.3390798531,0.6740663379,0.0525386656,-0.7641152118,1.0020366751,0.7702167617,2.3766638266,0.1403778491,1.0624497823,-0.1057809053,0.07948619,-0.0374897182,-0.5546308449,0.6238413604,-0.4884720993,0.6662731282,0.3519329314,0.1460205931,0.6676952694,0.1538889294,-0.6207036776,1.1821841056,-0.2317077265,0.5518284145,0.2260137442,-0.2162582132,1.2210854647,0.0821881466,0.3037850458,0.2612397449,0.2093394757,0.6367409288,1.1259610677,-0.7022191554,-0.2841136285,-0.0286180053,1.3197893529,-0.11081012,-0.2286951276,0.5513816542,-0.0772937689,0.4650893485,0.7236679862,0.2891134034,-0.4528037806,0.9043422338,-0.934729114,1.2151636197,-0.396296855,1.1847663965,1.1763693239,0.0068888543,-0.110506646,0.5373215256,-0.6108729046,0.5393199478,-0.474164349,1.3628890807,-0.9335491508,0.7592617023,0.0528328208,0.4261576821,0.2439368136,0.5768533944,-0.2227365303,-0.2775135458,1.4042994632,0.8693883549,0.2166915329,0.3600965665,1.331281834,0.0632901328,0.3330519173,0.4439063971,0.365521903,-0.4798646038,-0.7866984282,0.9804039423,0.5633539688,-0.1196851994,0.2286726689,0.4967721565,0.2934755468,0.5157835552,1.6919099592,0.1481619902,0.1839678258,0.0636224765,-0.1887041569,0.0331566366,0.8040468626,-0.3765274844,-0.3625498757,0.6373072307,0.8979888236,1.1350112778,0.3172069061,-0.2008295723,0.5765591576,0.3628519922,0.1568516664,0.9070427824,0.4569027324,-0.088291253,0.4241250367,0.5614740672,0.1810853735,-0.3528426725,-0.8125703301,0.7672902405,0.4118670803,0.020556719,0.4072291106,0.2494473074,0.3100503492,-0.2846112617,0.4990591958,-0.3575005028,0.2454527325,-0.5450045302,1.0564592936,0.6374158716,1.294218367,-0.490681052,-0.3182007118,0.6265362552,0.1955318672,-0.3244300134,-0.0451670286,0.3538814172,0.0524817103,1.1626096465,0.6523768789,-0.2997242226,0.6607055009,-0.4645424823,0.0766399959,0.1784855849,1.4667483541,-0.2443447191,0.8335729372,-0.3601637812,0.4130570503,0.6857353693,-0.0952815692,0.2492565677,1.1354937888,0.2626613297,0.9678659408,0.0825956748,0.8074350229,-0.4563541951,1.4057740985,-1.0409002683,1.0337136912,-0.1647968008,0.3594339985,0.8459091473,0.0958515877,0.3507950454,1.5496951893,0.8002885706,0.7595752773,0.2015689476,0.0416419539,-0.7243695952,0.2598438327,-0.6098335866,1.105591129,-0.5179567458,0.8276818941,-0.2123172489,0.2007244028,0.4695036957,0.0040408201,0.6705037035,1.2726667663,0.3359370563,1.396249748,-0.394963835,-0.1450634834,0.4538083064,0.0119109967,-0.6868147859,0.4244444132,0.9025079939,0.1809779551,0.0772703638,-0.4323546536,0.7506457513,-0.2409838701,0.5727933959,0.9230306946,1.4017542366,0.8701603595,-0.1538448812,0.0508676129,0.1603843469,-1.1235797033,1.401515243,-0.741559127,0.2056652712,-0.148216762,-0.1231563868,0.5734254222,-0.2880600913,0.5933832047,-0.4771749167,1.3444399876,0.2362070949,-0.778458797,0.4003390839,0.040139691,0.6594740139,0.6824856088,0.1932809687,1.0412816244,0.6481204828,0.7125046946,-0.5315237128,0.4214095656,0.5414059681,0.3949064963,-1.1172408294,-0.7102188724,-0.3441483423,-0.3946460638,0.2038627685,-0.1210775658,0.2500047926,-1.3537578098,0.1365918354,0.0209984227,0.1620483591,0.6298897048,-0.3271870485,-0.5429757633,-0.8980956742,1.2007275167,0.5225295884,0.1476365202,-0.3791082147,0.496031035,2.3459302795,0.1425367583,0.3539699028,0.3937444907,-0.4218661403,1.2105495921,-0.786768102,-0.559703722,-0.0863118209,0.4897869116,0.2793374361,0.1911169553,0.846682476,0.3574130536,-0.3805559088,0.1758390518,0.4717829467,-0.1489701473,0.0145960753,-0.546565562,0.432307516,0.1180471115,1.330391426,0.3080567636,1.4041083067,0.0804529036,-0.3598056839,0.537135941,0.0956851238,0.0165106376,0.2545495014,-0.6702716744,0.5683635975,1.0968725602,0.0603607854,-0.4970668013,0.5350275851,-0.0214951066,0.1480325591,0.4627803044,0.8588720661,1.0539139476,0.327607718,-1.1896350809,-1.4136415392,-0.6478949773,1.0080565509,0.9954003071,0.5167911244,0.2660058398,-0.3022907723,-0.4029662955,-0.4546722979,0.5207251256,0.4427700238,0.0426871435,0.0798209484,0.7166353985,1.105133319,-0.5967058134,0.6688395072,-0.0490837473,0.2502413598,-0.6590133161,2.4904015478,-0.9970060113,-0.2582661887,-0.2077629241,0.329702821,-0.6523717995,-0.2228213888,0.0652371685,0.3828801268,0.4414674676,0.4555636685,1.1064689858,1.1872843861,0.360531978,-0.6562878264,0.4119972367,-0.8513840003,0.1525476514,0.7418406157,-0.65612377,1.3683664295,0.1048564251,1.2966648618,0.3278666805,-0.0406893374,0.3950075987,0.0913983629,-0.6772014566,-0.2918539115,0.2447701744,1.1628378632,-0.2737519347,-0.4668061594,0.2705901804,0.0773273181,0.6523641716,-0.7161101221,0.4401519068,-0.7451935637,1.032950997,-0.0771541414,0.8183726627,-0.6562953447,0.955738674,0.1032365578,1.3731369652,0.8377351652,0.227313232,1.1248893197,0.7190789441,0.6347222676,0.6299353126,0.0360013343,-0.33226207,-1.2016486489,-0.5155220851,0.2449106557,0.1139046267,0.438494325,0.2536651985,0.1172053367,1.0780621475,0.519611143,0.8567048977,-0.1507520472,0.0560801133,0.3470643869,0.5072897402,-1.2168938573,-0.5078973731,-0.6959587607,-0.369820201,1.0219462786,-0.6672436555,0.278963436,-0.0410343245,0.6452501177,0.1855309811,1.327124149,0.2056926387,-0.0758591742,-0.1146422375,-0.7385959762,-0.4672068452,-1.3110919915,0.1078278955,0.6075384808,0.4993119377,0.7424652441,-0.0255999602,0.5628942054,-0.1124439869,-0.1251170423,0.9420907866,-0.6016408701,0.7168858927,0.8685388903,0.8685349912,0.1715196201,1.0004597913,0.2868647918,0.6288414071,0.9983750939,0.4875780278,-0.4876920635,1.2901348954,-0.6628369212,0.5825283562,0.8597158482,0.6073942546,0.4383482827,0.1864860301,1.1475311487,-0.1215420283,0.026420251,-0.1719124806,0.547220471,1.2003437908,0.0094290463,0.5575769937,0.9780547111,-0.0672284318,1.0914207158,0.279039579,-0.4056290465,-0.7251476152,0.3095402798,-0.0276596061,1.401060026,1.2194012152,-0.5988924039,-0.1533769346,0.9253540943,0.3780288844,1.3013298004,0.7214861363,0.0124790886,0.4596070742,0.9799377556,0.6141055706,0.5157545339,0.7599743814,0.0852304252,0.4544219614,0.0043924769,-0.5020563789,0.2979512417,0.0780740395,-0.3186960996,1.0849680583,0.1123445443,0.7617503829,0.3902054441,0.9782743914,1.3809471372,-0.3055210374,-0.4474212503,0.4344966182,0.0895269516,-0.7836831167,1.1915433259,0.003297468,-0.3670551839,-0.0719350896,0.7581741909,1.1657839402,0.3579016837,0.7122040632,0.564751094,1.2073890209,1.120873548,-0.4094717162,-0.1668321872,0.9805711318,0.8611961964,-0.4417868292,1.190951221,0.8817754873,0.2411699543,0.0147268145,0.8803154285,-0.1877489344,1.2782859277,0.4395783381,0.436455746,0.4014150488,0.8006099507,0.0181545366,-0.0325413267,-0.3083849762,-0.6656092273,1.276370164,0.4373237268,0.2777508676,-0.1245965093,1.1776210838,0.1258648665,0.3397418516,1.4083589713,1.1126281605,0.5598043639,-0.2893132622,0.2852030049,0.0401928864,-0.6767340544,-0.0823042316,-0.1571418467,0.0810012934,0.2601097342,1.0350775155,0.5392672872,-0.079125559,-0.4470830142,-0.3628823136,-0.3165540461,1.156496864,0.756030416,-0.0340677212,0.5190454331,0.6333123385,0.0036947479,-0.5461141764,0.9496927557,0.9976853483,-0.1067658374,-1.0074432892,0.079430218,0.3298271543,0.6621994466,-0.5095733112,1.3131005017,-0.8142813907,-0.3657153829,0.1159177988,0.3298851024,0.039935433,0.5566142633,0.7513161241,0.1319421733,0.1454434312,-0.1344420335,1.2521671604,1.0180474883,0.0583551122,0.046361818,0.0486258127,-0.4003592091,0.5500557794,0.010902731,0.2848960298,0.5204008419,0.2441543765,-0.5230378347,1.0423984059,0.1351639022,-0.2985770922,1.2492147498,0.3230415184,-0.2003826187,0.557498778,0.4552072255,0.8415858807,0.0440796081,0.64194652,1.3383098005,-0.0358414472,-0.1281820695,1.1970313843,0.6875981068,1.0176854003,-0.7120805027,0.7874655899,0.3203037586,0.2625922416,1.3742378995,1.2512171756,0.1679215838,0.8077426895,-0.2524856117,-0.1422653035,-0.3124405042,1.3404134644,0.137695397,0.8726821463,0.2620283804,-0.0127269824,0.8292411753,0.5200253846,1.3082700093,1.1354975396,-0.3600893347,0.3137208369,1.0575083561,0.319260994,-46.6833772292,0.6711059037,-0.1855897489,0.2953759772,0.4129863489,-0.0263698943,0.9068933237,0.6239592035,0.0685399722,0.6857685025,0.5897783021,0.5849802003,0.8192656148,1.3468326791,1.2631407741,-0.7468110087,0.7949298449,-0.4945498799,-0.6004218041,0.6194762197,0.3323437003,1.038744083,0.1684777425,0.6784069465,0.1493363057,1.2323007886,1.2676213915,-0.2691861162,0.4033135953,0.7293371649,0.1186297207,0.7884384151,-0.5421975792,0.38422832,1.2871185985,0.9420421602,1.3340918014,1.1105663623,-0.2363868179,0.1913056563,0.4529929941,1.0860496354,0.0242068997,0.6124463614,-0.6712479423,0.1913941461,0.1215874373,-0.0983929595,0.307620604,-0.2837454308,1.3671811416,0.0343285892,0.2718959504,0.282209019,1.233119522,0.7168491548,1.2251673599,0.6464223704,0.1003501877,0.5031805635,-0.2979102134,0.9848611628,1.2539634314,0.273322829,-0.3660980183,-0.6390817262,-0.2545249482,-0.7206164833,1.0814097826,1.1106806012,0.5207936253,-0.2675155906,-0.0529743788,0.2197895055,-0.8231192733,0.1155132153,0.9491273519,1.1290101284,0.1399040251,1.0372509341,-0.4049782232,0.1136567558,0.1825875313,-0.5801596278,1.2236120488,0.3113848753,0.6622277135,-0.2153180865,0.5955177111,0.5462247551,-0.0609834069,0.5094883715,1.3064778275,1.2463873916,0.464364152,-0.1655036498,0.2015548608,0.5307045809,0.0038438481,0.2453488179,0.2682459779,1.2293461504,-46.4986222564,0.6490827563,-0.110678078,0.564468804,0.4826086907,0.30050809,0.9913903697,-0.0575776817,-0.4650314404,1.062421631,0.7950638636,0.931976556,1.2543938885,0.4129089137,0.1447659331,-0.5466349756,-47.0799357682,0.2615721288,0.7357833562,0.7295174179,-0.3931153505,-0.0770183129,-0.0911617307,-0.5530369111,0.3531809444,0.722257982,0.969012862,-46.7806698381,-0.1191599742,-0.1943827039,1.2190926849,1.3272226332,0.711651499,-0.5933704583,1.0575637347,0.5224246448,-2.0952125784,0.1513599076,-0.007709753,-0.4365006324,0.2817592808,0.5525925859,0.5058147451,1.3490586329,0.2453172596,-0.7258301886,0.9242310935,-0.4582511763,0.3486229899,-0.1767656584,0.5427070996,-0.3650113558,-0.454363203,0.6879069809,-0.094462393,0.1900430384,0.8665929136,0.1060809849,-0.0677517375,0.0396082773,-0.6434050223,0.8567629221,0.9332826677,0.5735373836,1.3104398219,0.4668464129,0.4589853312,0.3712760101,0.1837266718,1.1010602473,0.24274695,-0.1510847223,0.4989312748,0.2045928413,0.8497553592,0.9696924638,1.0189244784,0.457617061,-0.1766106361,1.1458387349,0.5937126331,1.0923797586,0.7150567992,0.5011469662,-1.0842807826,-0.6030904529,0.5099833416,0.8433226242,0.2840698354,0.9411059368,0.0036901095,1.1878558676,-0.578180544,0.7074411693,1.2522163527,0.7919156416,0.4370539351,1.2408375852,-0.5514061012,1.3183694875,1.0802279704,0.7423060422,-0.0834614754,1.354762229,0.0957790084,-0.5774866522,-0.1656142729,1.1071032662,-0.3902748675,-0.5119942889,1.068980525,0.3281087408,0.6592376668,0.3803131722,0.5255991082,0.5861703869,0.5073197712,0.2968834342,0.273498374,-0.274240018,0.5788782172,-0.0585614164,0.3516089895,-0.1524158255,0.8133471917,1.3780767159,0.2341203892,1.2076142935,0.228171159,0.3827019128,0.5917825114,0.8235112905,0.3171316142,-0.2467851515,0.5897269609,0.7985392516,1.0280023881,0.375352794,0.0198052828,0.8963035273,1.1074321207,0.2734836002,-1.5505596005,1.2426256109,1.0222502395,-0.2698854571,0.265939285,0.3700833352,0.1143202316,-0.0923417699,0.2519048335,0.6698068656,1.3964249706,0.1621056416,0.6846242234,0.2356598796,0.3132123801,0.8863688104,0.5449956439,-0.6430720277,-0.7525407565,-0.660417741,0.0760803619,0.3185094586,0.6587020468,0.6854179208,0.6720865191,0.0734306644,0.3079927302,-0.0196710959,0.6178291742,0.6881475731,0.599911105,-0.7075632918,-0.3727720002,-0.0157940497,0.4648350424,0.3086055839,0.6235469804,0.7375727388,0.5660724352,0.8567007564,0.1209683923,0.4482377092,1.2229138979,0.2558658824,-0.5677565105,0.5776595476,-0.6158962376,0.3181005993,0.8251511838,0.0823215298,-0.8178725783,0.5444389933,-0.438376346,-1.1512168182,-0.3808540063,-0.6050836654,0.3893764945,-0.0341123329,0.474099888,0.1587793395,0.1394945338,0.0024268871,0.6888703069,0.5960252138,-0.4884539592,0.4541414145,1.0313485847,0.1919049517,0.2965442546,-0.1956390354,0.5342550824,0.1160478543,0.0771098536,0.0257659765,0.2108805842,-0.3672819316,0.127815034,-0.2774786545,-0.3220470574,-1.3206877856,1.1240481864,-0.0447032612,1.3327774802,0.9672010827,-0.4724302904,1.3963026551,0.2644067988,-0.2272038396,0.3693271199,0.6358278817,-1.3348047598,0.2081069525,-0.1929848028,0.2911316211,-0.4928984518,0.7226824989,-0.1938335157,1.2478420048,-0.1005327301,1.0903638996,-0.8950039728,-0.1144237625,-0.6064659476,-0.356793185,-0.1735681461,-0.0780564414,0.9354983986,-0.5314420075,-0.5758617682,-5.8165471441,0.616826586,-0.6909688971,-0.1944270346,-0.3037481217,0.082607425,0.3690839597,0.1070001225,0.3934946607,-0.2510381568,0.1538919325,5.7664480953,1.3540614313,-2.1135545787,0.9070626268,-0.0934676415,0.4960726967,0.5367835652,0.2637567747,0.5267730676,0.7602761325,1.0279205248
   -0.250902943,0.5658074056,0.1255104441,-0.6073984503,-0.3187967095,0.8996042412,0.6296873439,0.4127939186,0.0367139591,0.4149726814,0.2598633963,0.8183757605,-0.4383062632,0.4793873394,-0.0083426456,-0.4135224134,-1.0661760216,-2.3909813113,0.0569750551,-0.0537751669,0.4857127975,-0.5465326178,-0.8240857175,-0.3127800847,0.8777292535,1.3778499107,0.5699309907,0.6573110374,0.6377972088,0.7079585931,0.6183184735,0.6295963309,-6.8797567306,-0.1409562879,0.7537294231,-0.8946502431,-0.6154273747,0.5441221556,-0.079224161,0.3723172158,-0.1610289964,-0.5409226875,-0.5390524939,-0.4106077784,-0.7375698068,0.69327753,-0.3541666055,0.5862329512,-0.5078691345,0.3038164002,0.0880822588,0.0018537863,0.4077369618,-0.5587632244,0.6520467998,0.4115413731,-0.5650663634,-0.8079806196,0.9242679874,-0.5857140583,0.5382679964,-0.6663309504,1.0376414138,-0.4619799709,0.691788095,0.9809655665,0.4784415591,0.0620546207,1.2632736103,1.34031133,-0.4437325589,0.0449519964,0.193439904,0.6028641205,0.1273775762,0.6596604366,0.7665993303,0.3588302433,-0.1757220108,1.3390668186,-0.1110559248,-0.5527114534,-0.3274373074,1.1800068617,-0.1902135744,1.0902955871,-0.0213760116,0.6858288755,0.6266105438,0.205083915,0.0877072374,0.160801619,0.9865920059,-0.884004071,5.530364036,0.7414398461,1.1940017221,0.2609030214,-0.333699735,0.7249572284,-0.5042685019,0.2723311607,-0.3867794513,0.336393798,0.5817447591,-0.0991386797,0.9753557292,1.0173390134,0.5378266474,-0.0244166505,-6.8986441624,0.6656906635,0.7161876605,0.1015774725,-0.5086971302,0.9717821899,1.3376508338,-0.4502487506,-0.3122695148,0.2494279039,0.7986920324,0.425665695,-0.4160061729,-0.5850690061,0.0825531866,1.3277510607,0.1851422808,-0.7559250275,0.1929359139,0.5288762604,-0.26274384,-0.1082561401,0.3222587889,0.1340032394,0.7259613119,0.912546795,0.4802886559,0.5172345472,0.3732932492,1.271970597,0.4791660184,-1.2629651756,-0.440861508,-0.5687998134,0.5150021304,-0.1751963563,1.1348927259,0.4527547975,1.2305245523,-0.3623954846,0.3513863668,0.5194777818,0.19779003,0.2577245357,0.7406721532,-0.5648917071,0.3002709887,0.528094519,-0.019335303,-0.3868049111,-0.3323995831,0.5529609558,0.9030736871,0.2746608534,-6.4500358516,-0.4900832316,0.8278313632,-0.5662863074,-0.0776453019,0.9734585854,0.1086166071,0.7151386027,0.3809293491,0.7113153325,0.9146343795,-0.6181541378,0.4842260207,-0.6451035351,0.1892576892,-2.3715316618,0.6124281507,-0.5972317173,1.2362553761,1.2840154823,-0.0056111689,0.1874633781,-1.6317062108,0.0704542128,0.2183687251,0.3325490304,-0.382934758,0.1510701673,0.4732653855,-0.5769283409,0.6846408178,-0.3380407681,0.4588708759,-0.3071743532,-0.5762066089,0.0023490398,-0.8363991598,-0.8573975037,0.9463104546,0.9747345448,0.7415739888,-0.3380131681,-0.062767569,0.4299349839,-0.162601793,-0.1304496244,1.251440535,-0.6203062656,0.3583789269,0.6939698769,-0.0503397162,1.4034674589,0.2652062366,-0.0876639321,1.3512268365,1.0673877686,1.3685721906,0.4639539441,0.8203422795,1.3771229394,0.1271301204,0.9824853191,-0.5003955052,1.3446710817,0.5747743705,0.1857264019,-0.3243690005,0.2953774801,-0.2903333765,0.05746278,0.341483936,0.178617159,-0.2537919375,0.4880906878,1.2257724679,0.59211714,0.8576084958,0.268628427,0.6771794366,0.0222228729,0.7010000756,-0.5379020535,-0.5686207548,-0.3403976684,-1.5619171676,-2.3681552507,-0.4360008153,-0.1506971274,0.2897543529,-0.2321081866,-0.6272122119,0.335533178,-0.530513106,0.2315644623,0.1161688492,1.2501014826,0.1889333948,0.4311709105,-0.2356787424,-0.0819634306,-0.1698340093,-0.4960197361,0.1495675751,-0.4972415177,1.396895763,-0.8189254253,0.9253487695,0.4475473059,-1.8842271231,-0.1381158517,1.14931383,0.1353104902,0.3071696819,-0.3132314672,1.0038240382,-0.0877061882,0.3943790733,0.048348349,0.7060193351,0.5409424855,-0.2215186322,0.2277191985,0.4275616873,1.0098442798,0.1015018192,1.0529718336,0.9305470582,0.2345723543,0.0085788148,0.3585355585,0.4671875192,0.0470028583,0.9877783735,-0.4355641885,0.1649707369,-0.0580254221,0.2484608497,0.6083807325,0.7983662786,0.2007129323,0.6170835444,-0.6363778698,-0.1171472756,0.1028799942,0.9500909219,0.2901042192,0.5265595895,0.9435277418,-1.4686291462,-0.4247410975,-0.4538978688,0.1241338906,1.0042295271,1.0865124865,0.3327891194,0.7013722181,0.0882690879,-0.3925603442,1.1665955463,0.5336345042,0.2522370158,0.6608759235,-2.2171734192,0.9410698305,0.5398475572,1.3566037957,-0.528545595,0.7290323323,-0.0664385402,-6.7840547958,0.418334819,0.0908738229,-0.4711074579,-0.2623419656,0.173146753,0.1191554065,-0.3117193171,0.3054486789,-0.5855365606,0.5128373918,0.9706520856,0.222393768,0.2758976631,-0.5760239397,0.6040622689,0.388214244,-0.5033040006,-1.2308594084,-0.2615274822,0.8267232425,-0.507590586,0.5263978189,-0.0718400733,0.0343526387,0.0516351944,0.0490946851,-0.1293580483,-0.5556496103,-0.5964683156,0.3402748073,-1.4403716296,-2.2879011266,-0.4164093308,-0.6065236162,-0.0753463641,-0.3365747981,-0.3460911697,-1.3418343927,0.1853746356,0.1781167341,0.3061351414,0.5924284224,0.704347092,0.4281558969,1.0363850446,0.6866181613,0.7031686608,0.366583671,1.1421524647,0.7452939826,5.8673158908,0.9795719508,0.408197282,-1.8399356374,0.2776170286,0.3142962195,0.2531856932,1.1927414471,-0.3360113064,0.714646797,0.1798636554,0.1101930066,0.3285715262,0.0051691434,-0.2150164939,-0.5518848019,0.313321448,-1.30290222,-2.28560567,0.6769617675,-0.2699276003,1.0737680173,0.0329619674,1.2946606373,0.2408197808,0.3971232484,5.54327564,0.4157164466,0.6840483965,0.599248737,-0.0871772727,-0.7088948625,0.5717041552,0.5198017966,1.2503124833,5.4786818207,-0.8131247762,0.5599459009,0.1899790289,-0.044857762,0.8326092529,-0.7797532417,0.6638381504,1.2930862863,0.8780790959,0.5042965343,-0.3633061369,0.2649805334,1.3776737876,0.2803238697,0.5128159017,0.0638798083,0.9101596238,-1.1220512113,0.6668751353,-0.5628452622,0.4250373621,0.794411873,-0.0976094159,1.0114885958,0.0486891872,0.9555469739,1.0439311197,0.0856288921,-0.6527743596,0.5631155762,0.9898850173,-0.1768587625,0.4399929163,0.5336792957,-0.1250442033,1.1525367856,0.1039342636,0.7355314698,-0.3376886614,0.5085173367,0.6129821111,0.3354733282,-0.6833049635,-0.6501971066,0.155813928,-0.1934248266,-0.4379571264,0.09767371,0.6557976859,1.0972263616,-0.127838561,-0.3543525274,0.1345144113,-0.332696871,0.2463766123,-0.3157335087,0.0449054886,0.4524190382,0.7256679904,0.1339617341,0.4457061512,0.0835141222,-0.3474639984,-0.1627028154,0.9703009574,1.0514128457,1.1828200811,1.0440876628,0.6213029457,-0.274185489,-0.7846362412,1.0217463212,-0.1633952054,0.8784060771,0.9472754394,-0.4992049281,0.4121871249,0.2254394617,0.6003803342,0.7165725632,0.6490566157,0.3775400624,0.6486269139,-0.6013408104,-0.0725376234,-0.7225242837,1.1523151246,0.5803419567,0.811013474,1.2823290846,-0.0372915966,-0.2604280908,0.4601451279,0.7191918944,0.925859456,-0.2283698238,-0.2830648092,0.0354502266,0.8076346066,1.3768763767,-0.810968831,0.6146499641,0.0544969821,-0.5110466081,0.3495093694,1.343359485,0.5219201826,0.2389171713,-0.2853324855,1.3593389124,-0.3209108707,1.3335975775,1.251256304,-0.9479715499,1.3235857341,0.4149005202,0.4135367766,-0.5192007836,0.5833571923,0.2089913175,0.6120665073,-0.3722720275,0.8005871743,0.1725772643,-1.2577036644,-0.0453508929,-0.661081231,-0.9893585372,1.3885948003,0.3671090935,-0.1940127817,0.6524448231,-0.8124426662,0.0654450562,-0.6738272044,0.8682528017,0.5718337306,0.0223237073,-0.7659332326,1.2446955522,-0.76327972,0.70856308,-0.444456487,1.0215375394,-0.1958696144,-0.0913333992,0.4119045056,-0.5996227991,0.2395241713,0.9858852796,0.1576986634,0.5569501047,0.2150552141,1.8152072028,0.9811919018,-0.148118085,1.2542985609,0.4874596145,0.7428767129,-0.633789826,0.8918907088,0.9715929116,-0.6284049072,-0.1658235248,0.3711157954,-0.3560230648,0.3111678351,-0.1729201016,0.0989450791,0.1601183788,-0.0944738631,-0.111568969,0.9346752854,1.2965555369,0.3092995606,-0.2596313368,0.7425140361,0.8855243583,-0.4317164553,-0.0300827245,-0.3245565811,-0.061012154,0.2965289206,0.4739822697,0.7099414289,0.9845284446,-0.2571264721,0.7066498234,1.2354619868,0.3124844369,0.7856758861,0.0089214975,0.5126971693,-0.0588559425,0.1635346764,0.0692317621,0.947347915,1.3148384941,-0.0939931017,0.0126880658,0.9190712919,0.2128304944,0.1513419625,-1.3831074219,0.0456454494,0.1094300651,1.0109134079,-0.2185812579,0.7250439505,-0.2577497838,0.311939749,-0.2088425058,0.8636925429,0.1485590927,-0.1267021402,0.4171042558,0.8732922096,-0.4423105807,-0.7417702035,1.0756430444,0.4561554263,0.4079034799,0.0452382418,-0.2833302292,0.8245960434,0.3058123419,-0.6671313881,1.2849745665,0.5457486497,1.1424967102,0.0855641212,0.0897759045,1.2505546006,0.051007817,0.0490794363,-0.1808623157,-0.4370461919,1.3447232174,0.0719306553,-1.1919548579,0.8870635375,-0.5977069558,0.8207562724,0.904658278,0.1560723434,-0.4938660469,0.5548914415,0.0137993917,0.4420434148,-0.6084746207,0.9534737745,-0.5598156252,0.41707823,0.3971077839,-0.076219467,0.3963782153,-0.7060601793,0.3375638262,-0.6325560007,0.6289581264,0.4131214737,0.6881482834,-0.3634807527,0.7065692316,0.2587541634,-0.1214278649,0.280838049,-0.2358483715,0.4622264866,-0.0045427409,1.39083552,0.0813225876,-0.1107292388,0.1993429034,-0.6958944922,0.8818703124,0.6607682446,1.2714144382,0.36156101,-0.0102798208,1.0114699684,-0.7038350388,-0.1320100046,0.4593633633,0.1305052419,1.098127847,-0.1574834067,0.2383652691,-1.2701240749,0.757062937,-0.4129426011,1.3034318228,-0.3319595264,0.2909321809,-0.2663158565,0.2502467197,1.2864900189,0.2133204138,-0.4790727889,1.0558544257,0.734823902,1.0174741278,-1.3624609583,0.9940700365,0.8239465825,0.0114806178,0.730781634,0.4719595086,1.3323847075,0.2019873339,0.1555308846,0.1396286767,0.4433719299,-0.1357916476,0.8566768555,1.0825154106,-0.735001762,-0.1042341651,0.5441609567,0.601468642,1.1919152866,1.2816013058,1.3499668251,0.1186766273,0.4301208557,0.4134849412,-0.1527136892,0.159174615,0.6241341566,0.1949402069,0.8790989909,-0.0023084007,0.4103873714,-0.1001514714,-0.7306641889,0.5575287784,-0.1250789691,1.4530902816,-0.4792247714,0.9676353748,1.4063576005,0.7715172791,0.5574514945,-0.7642732779,0.5228475511,-0.9572057634,-0.4450928162,-0.4506431114,-0.1038230938,0.7752131282,-0.4761137467,1.0542182324,0.1552302188,1.0957956492,-0.1582111047,1.2844246188,-0.3456034305,-0.2564395954,0.4776396765,1.3905413948,0.2084073195,-0.1599097416,0.8058374801,-0.5171857577,-0.6057853763,0.2311553247,-0.4398424539,0.2620331516,0.0943121375,-0.4380008997,1.0458496345,1.1797141747,0.0947924137,0.750830001,1.3736964749,1.3068508846,-0.1117083098,0.5085923267,-0.00986326,-0.2400073691,-0.6114998637,-0.4129684034,0.2406686466,0.6556378806,0.9177831169,0.594897684,-0.1020650219,-0.7339270803,1.1745766867,1.2019017406,0.7087175613,0.33805226,0.5705319245,0.2762651989,2.2870374729,0.3939743465,0.4123590348,1.345129986,0.4021442663,-0.2543399714,0.8403411699,0.2936255492,0.3961280061,1.1248171836,-0.7040940825,1.3639350579,-0.2408596233,-0.9677642554,0.0796231199,0.4885180946,1.1929362446,0.1578660338,0.6982113972,-0.2846478696,-0.7685582019,-1.0862698494,0.6699978389,-0.2419323104,0.8785826287,0.1369940835,0.9354100983,-0.0453398329,-0.4199526964,-0.7033374412,-1.2025533093,0.3789730538,0.4279205167,-0.6953036593,0.0770718788,-0.1765956624,0.7770720498,-0.7450002202,0.3243225249,-0.4972736489,1.0753122276,-0.458954066,1.3027633888,0.4158516301,0.2087250555,-0.3684875299,-0.2004609121,-0.5474661762,-0.5263270193,-0.2812940507,1.0907084594,0.2558800297,0.1146796321,0.1322590792,-0.0373016541,0.3448597216,0.0888093167,-1.3153674041,0.9454867175,0.4193112147,-0.0129725587,0.6360082618,-0.5249043137,0.6155977899,0.1807692889,1.0627355648,1.2852670561,0.1359629075,1.0552619274,1.315603402,0.0187816364,-0.2375085683,0.4772644042,1.1801712941,0.1256742347,-0.487682967,-0.4215272201,-1.0723173248,0.3864331645,0.2642930867,0.3643318589,0.7536488137,1.1049852009,0.8107998603,-0.6531587377,-0.311003098,0.4739170206,0.016857795,-0.6628413803,-0.5429457052,-0.1705347287,0.6889549148,0.2222991419,0.4357127322,0.9923250416,0.2217408474,0.5788964246,-0.5092156785,0.4756889009,0.6951941537,-0.1371247558,-0.0974243722,0.5531880076,-0.8940679263,0.9207879918,0.7335020165,-1.4301180739,-0.7885106703,0.6096215635,0.3953061171,0.6177537107,-0.492962565,0.2122961666,0.7960721543,-0.298977417,0.6667862698,-0.262787671,0.500002265,-0.4130788965,0.3947378677,0.3518423883,0.0754894975,0.6065902489,0.0079328067,-0.6602527798,-0.8685302407,-0.3238410519,-0.1570017763,0.9345766258,0.3988842317,-0.2604060157,0.4610684028,-0.1754013406,-0.3616789179,0.0254351989,0.6421570178,0.1688278539,0.1031864775,-0.5166628256,0.9280886204,0.4327375405,-0.0087351497,1.2489704915,0.6772038595,0.2921005727,-0.4436725136,0.746158033,-0.2354589594,1.0192820478,-0.1594861105,-0.0937723973,0.1994943184,0.5216875128,-0.116050102,1.3615860091,0.9447157224,0.7703517694,0.6982981143,0.4632515039,0.1738792806,-0.4665963211,0.4298061858,-0.6578851548,1.2056993329,0.4533554156,0.8356338228,1.1522634403,0.8243286989,0.6290135015,0.4150395626,0.7289314476,1.2678914245,0.5179130008,0.4953860167,0.0170932382,-0.4937957031,-0.1294179062,2.7827271925,1.3710089541,2.5386558227,1.0774448166,-0.0833020536,-0.348932482,-0.6292109856,0.474471111,0.527166972,1.1855450661,0.7372992776,-0.2593971796,0.9986164254,0.2900457858,0.41432479,0.5317852713,0.016816441,0.113294178,-0.5429220967,1.1438121489,-0.0162912183,0.4151926941,0.4336310944,-0.5063135309,0.2003657686,-0.3521341492,-0.5525085199,-1.5281676753,1.8348017012,1.1345014032,-0.4535799216,0.337781476,0.565090972,-0.3803596748,-0.6217831326,1.0919838922,0.2515811994,0.1065441143,0.6665879443,0.946281019,0.6469879267,1.1784329492,1.0190423275,0.4048860269,-0.1658182435,1.0852603066,0.0371853081,-0.3651882147,0.3071227751,-0.6659835915,1.2977070533,0.4142661895,0.4182246745,0.0519537669,0.3943685893,0.3010934393,-0.54717588,-0.413016396,0.8887485642,-0.0284282914,-0.2067174265,1.3182732101,0.0697235231,0.0928103129,-0.5766581765,0.0096496811,0.6708922105,-0.0246700182,0.2410481942,0.6367192096,-0.3594105197,0.1084963578,-0.100761066,0.4130015715,-0.5497024292,0.5552263134,0.7282822572,-0.3229804185,-0.3522241126,0.4334229683,0.7028769947,0.5547714741,1.0310107781,0.4909816538,0.58913091,0.3333498238,1.1143913279,1.11737541,0.821064553,-0.2292536942,0.9931762319,0.0600225718,-0.0417336775,-0.4495066137,1.2071210195,-0.4078837753,1.1307839296,-0.3210860812,0.133422925,0.7156426431,-0.2997225769,0.3474829676,0.263833987,1.1830755884,-0.4563122455,2.8521650531,-0.2666569136,0.0773012211,0.6409375104,0.1616879049,0.0381337564,-0.6743110734,-0.4836808953,-0.3764249795,1.0076356824,0.1947980447,-0.1059258339,0.2462261138,0.0965072321,-0.3804346809,-0.1830207656,1.4585223572,0.4900579601,0.7254955942,0.3357838805,-0.1394984845,0.2543057475,0.8387581627,1.7191712957,-0.2113057899,0.8371488999,0.2985101417,1.0543051575,0.5686816251,0.5121218971,0.8267341195,0.8930642609,-4.2643882168,-0.4725017883,0.0082782068,-0.3910465704,0.0937930704,0.3506651347,0.4900939795,-0.5979178593,0.8806016485,0.3342502945,0.4212803759,-0.1242161098,0.5845844767,1.0302079674,0.5614775432,0.4075414508,0.4207167655,0.6585166441,-0.1510775513,-0.218308374,0.2062035538,0.6179051894,0.485136548,-0.210171294,-0.1644430758,1.3578250247,0.949215205,0.0754456959,-0.230901158,-0.1308930253,0.7604502715,1.3583587728,0.3113841529,0.5058398811,0.4107662809,-0.3860478102,1.2971032371,0.5654385226,0.915259902,-0.1054678233,0.8680707524,-0.6300027249,-0.4473031711,0.8828498886,-0.3800210042,1.3082881387,0.7841882943,0.3300763766,0.2931084412,0.9080752228,0.2230569069,-0.6068192397,0.1630572934,2.8948425944,0.89204246,0.1514703893,1.2226429335,1.1101158785,0.1822301545,0.9350066657,-1.5672197768,0.4463519991,0.0408703589,1.2498311849,0.0026052076,0.4236295263,-0.6373183157,-0.6657255782,0.4247826487,-0.1074473127,0.2355181216,-0.6352030118,-0.6291223176,0.8146113199,0.6013627699,-0.267856703,0.5633437851,0.254264471,1.1474300408,-0.0356252181,-0.5449759714,0.3496539305,0.3252545192,-0.170281741,0.0532460692,-0.217586864,0.3541190284,0.6977144801,-0.0314516071,0.3961929166,-0.4949194815,0.4644275609,0.6092635816,0.7460563881,0.4326260522,0.0787376382,0.1082238202,0.6584958286,0.8620016578,0.0828080363,0.3721521564,1.2878553891,-4.1343610658,0.3952944089,0.6388651671,0.2041350293,0.2944959479,0.5766552664,0.649356142,0.4711092076,0.7638255372,0.2957223502,0.9170551214,0.5531850483,0.1696657834,0.1516444287,1.181453432,-0.2680286222,-3.0352787292,-0.5349686444,0.3529152081,0.6034911122,0.6914719635,2.2315155213,-0.0313983439,-0.4400043813,0.3458150541,-0.1884705119,0.016611338,-3.2267376687,1.9430402362,-0.1718914292,1.179477794,0.2540201457,-0.6733607939,-0.3469376771,-0.2982932731,-0.3412262489,0.3854621821,0.537076993,0.4571370234,-0.629936727,1.3765019287,-2.2068294367,1.1349045986,1.2541076561,0.4905983057,-0.6409198073,1.3930499345,-0.5773002281,0.1707157563,0.2738703377,0.8822752159,-0.3937494921,-0.7195868861,1.0153999455,0.0615515355,-0.5740026018,-0.0971436792,0.1262360303,-0.6661475724,0.4500773929,0.2852479158,0.4110590992,1.1896434273,1.1421456821,0.913236548,0.9928907446,1.2305615348,-0.2630157506,1.0863396559,0.1929429452,0.6983153165,-0.194227266,0.2878064633,-0.2630172734,0.5881905391,0.688817072,-0.3176366422,-0.0502142445,-0.4857943258,0.1609188616,1.2941982442,1.1624477162,1.2111510341,0.0790528912,0.4654169686,2.2561018625,0.2458882339,0.041554263,0.9914192243,0.1349582692,-0.1823412106,-0.7797917304,0.4414776195,-0.2989290533,1.1834986994,-0.4584265926,0.9688568385,0.6394159705,1.146676435,1.3403678473,0.6069193959,1.1085448082,-0.3596748187,0.4122870603,-0.2324165659,1.3596138777,0.8876773195,0.1657857381,0.0828507531,-0.1113389076,0.7012864848,-0.5125921556,-0.7836068873,-0.4498658604,-0.0407087051,0.5438496533,1.3122482247,1.1721795101,0.2854668261,0.5474675842,-0.1538040086,0.5934054052,0.8718670847,0.7032952625,-0.5925489887,0.4670593962,0.1748481762,0.080487566,-0.1077703425,0.40487701,0.3954202301,-0.51917608,0.7162980853,0.4875953916,-0.4263291055,1.1553185448,0.0654507636,3.0094941569,-0.5219018933,-0.3165131847,0.3558306455,0.3864052606,-0.2364887207,0.6077669004,1.0564651405,-0.390728286,0.7462124668,0.0375154494,0.5120217852,-0.3585649744,0.6730339963,0.338836603,0.8090884169,0.2358178994,0.3104800402,1.3336467081,2.0506020398,0.8731221358,-0.5464817583,2.6562998249,0.1540024443,-0.0232864658,-0.2072836667,1.2688723082,0.2903493042,0.1244162406,0.8984474786,1.4085361591,0.7321363789,0.6096708514,-0.3045517641,0.4106518362,0.9811066977,0.3252660445,1.0321113428,-0.6832862018,0.3147127586,1.2188457978,-0.2572214607,0.4458336937,-0.0787754499,0.5925838759,2.2126984482,0.5580095636,0.2259010661,0.0928759487,-0.369019365,-0.4618757788,0.4212241498,1.8255852012,0.8393500452,2.8789622157,0.2104157165,-0.3806579101,0.3102148055,0.1859691622,0.1772246435,0.802444651,0.5425207753,-0.5720552701,0.4850950394,0.3742872866,0.4087065876,0.3375320468,1.0652638399,0.7137715976,0.3145306865,0.4761840794,0.1008844308,-0.2577250867,-0.0548818544,0.6838702384,0.3434331738,0.1022126235,-0.0394725262,0.1932575217,0.6040745546,0.7000492705,-0.0734959726,0.6662399397,-0.431699276,0.601717734,0.1541503468,0.4542050026,0.7073538095,0.4993372463,-0.1616904489,1.1693102102,0.6079991118,0.1620261031,-0.1805803749,0.8661853096,-0.5393553105,1.333062729,0.3855012755,0.522213827,-0.5531058325,0.7334751831,0.3304252364,0.7448381746,-0.1585279192,0.9892479797,-0.1695518302,-0.2449658718,0.6142805647,-0.2381772238,-0.2543925697,-0.0302243344,1.1165843016,0.5734789343,0.3336492454,-0.0694878293,0.8080955715,0.0885704358,0.1082686939,0.0458296952,0.116120491,0.4342439373,1.2026294681,0.8615595313,-0.0203152216,1.1875016725,5.5400154545,0.3072936306,-0.2394236471,0.8718764111,-0.0425756502,0.4287319456,-0.5062339717,0.5737315719,0.7549705238,0.0669847673,0.3567708095,-0.3235379979,0.3515663929,0.3138521448,0.1531484662,0.9976087738,0.462040382,0.1189101795,-0.1406239308,0.3124185839,-0.1029415554,0.556991455,0.9950391399,0.1093335028,0.2994431636,0.0649242958,-0.3624186528,-0.2559637345,-0.0736252432,1.0170851643,0.7681677464,-0.4917708847,0.1904202476,-0.4273886742,-0.4031199341,0.4153021573,0.7804960653,0.1051754497,0.2556772935,0.7405355472,0.317822402,0.3332926905,0.4953927522,-0.0056731904,-0.3177122404,1.3686863592,0.1193842888,-0.1023452044,0.5129036871,0.4083157686,0.923264155,-0.0113812188,-0.1750451807,0.883079576,0.4878231319,0.115504497,0.2575445897,0.7544077954,1.1644034031,0.4397642185,-0.0470094678,0.0539788394,-0.3495708749,0.7255822356,-0.4338121772,0.0637351734,0.1515307045,-0.38790902,0.2222710998,0.8046152295,-0.3554439452,0.3276341645,-0.2309366315,0.1552297161,0.5890084461,0.2230603318,0.2603144421,0.3767527985,-0.5184502916,1.1278006986,0.5271090766,0.5209053982,0.0412670473,-0.2761679553,0.2604016694,0.7000298203,0.9340365198,0.5350282406,1.2798575912,-0.3153920036,0.6226598041,0.1997970971,-0.3022723744,0.6420346052,1.1099151981,0.5934990965,1.3947451892,0.7512669035,-0.5547441996,0.6961186812,0.011026839,0.5585432174,-0.5236799594,1.199096769,0.6779407287,5.8259275608,-0.1654909204,0.8611562182,0.2550175279,0.2677460213,-0.4327257645,0.3371329836,0.4890334109,-0.4441966152,1.307922527,-0.3814526211,0.3099604695,0.6638836373,0.4397770197,-0.2981641645,0.8212683493,0.8168669424,0.3668398113,0.3906581908,0.5939587,0.034672057,1.3986450885,0.6943453268,0.4412268718,0.8364611945,1.0570302372,0.4914943371,0.8224192767,1.2647089835,-0.337664448,0.9723922712,0.4066978154,0.295367545,0.6241478215,0.7933738892,-0.227634084,0.0233797146,0.1508957331,0.7948230441,0.274478835,-0.2785331616,0.4307042739,0.548035211,-0.2813685664,0.6781918838,0.8702447148,0.6691992671,0.8509184064,0.7529998437,-0.5002343338,-0.3529001507,0.3857536308,1.3187457158,0.7006525601,0.2181873015,-0.4365253808,0.2914977502,0.4862575636,1.1270018263,-0.1612518094,0.0969431441,-0.5361868416,0.2144368721,0.579915043,-0.0003294741,-0.4419448669,-0.562028811,-0.1632210881,1.3507874755,0.3043218525,0.0312329304,0.2384200833,0.9145334328,0.803204871,0.0896778737,0.9178065155,0.6300873132,0.2303414707,1.3610254332,0.2967556927,0.402941091,0.3894804149,1.2354706837,0.0437483155,0.6040424049,-0.2897909987,0.9175463771,0.7071697554,0.5461656092,1.3480809222,0.7302880473,1.3496125903,-0.5198706798,1.0453730231,0.7167246733,0.7892606436,-0.0831863211,0.0406009602,0.5505066753,0.1126557027,1.304376607,0.3515112727,0.133063868,-0.5303617625,-0.3862918529,0.3498574868,-0.1749474974,0.5219865884,0.188328694,1.1158893124,0.5725058653,0.3141070368,0.6212403432,0.2214597809,0.772923407,0.7183848413,0.4223375801,0.6508181092,-0.0539857507,-0.1338083046,-0.0332243055,0.708664312,0.6783481357,0.8963381384,0.5018957553,0.8646804179,1.1724687635,1.849325121,0.5660476874,1.0145632632,0.3582788005,0.9909218671,0.4868645008,0.875130631,0.4808008225,-0.1102994301,0.8209620241,0.531649638,0.729272054,-0.5493513671,0.4932417518,0.3197977804,1.0226098142,0.1781617591,1.3928788528,0.4781946334,0.3599701774,0.0596990626,1.1658290992,-0.2372504699,0.6262102985,0.10586458,0.2082100453,-0.2826069854,0.6699170269,0.554572065,0.4536853263,0.4557640121,0.4137646839,-0.3956274614,0.5187480153,0.258007048,-0.4258760294,0.5395772881,1.1191807449,0.1881812953,-0.4255873385,0.099525822,0.1450546962,0.5975022361,-0.5144299452,0.2913592472,0.8026936549,-0.0113647034,0.2766258329,-0.1211187224,0.3550303216,0.2341632159,0.4688982948,-0.1644314085,0.040135334,0.823353318,-0.5660756903,0.5495997291,1.0397667006,-0.1293632559,0.2106591209,0.9372892071,0.641084962,0.4736192807,-0.4796562511,0.63156649,-0.3905774848,0.9768638723,0.2667144479,0.6904746651,1.078289724,1.0463984832,0.9436602144,0.9931326424,0.465059852,-0.1122165057,1.2358117971,0.806592101,-0.1975874911,0.7336375656,0.0403363854,0.6469179382,0.859942139,0.1323781679,-0.1592862636,0.6715914951,0.5145101008,0.8084766834,0.5865689995,1.3900987723,0.2800014831,0.2160876432,-0.7611699676,0.0300046858,0.5371862035,0.5682611792,1.2357000995,0.2978216416,-0.0810142688,0.5422723878,0.5453967703,0.5920912986,0.7179223232,0.7847779378,0.9423590882,0.1597211513,1.1221550809,0.076211604,-0.2000924006,0.3839542786,0.5145724131,0.0251077139,0.6943994464,0.2006651487,1.2759779384,0.8149066122,0.8336515248,0.7434834301,-0.4087411076,-0.0840057922,-0.4679613368,0.1763359875,-0.0642092922,0.2799870108,0.2039242738,1.3339637559,0.7652791197,0.8825927144,0.1425518182,-0.1992690339,0.5705560559,0.5312410958,0.3814126925,0.7957885967,0.8212985889,0.0688998636,-0.1291717537,0.6046659825,0.4762801118,-0.568557167,0.8140567112,-0.2546769251,-0.3456813011,0.5608332846,-0.6130366295,0.0438063629,-0.0593953166,0.3115334916,0.3645771161,0.1833304529,0.7710982436,0.2750552509,0.8530400742,0.3394280662,0.1139104243,0.4457088652,0.3295858209,0.4921509439,1.2238477675,0.2606698984,1.1203225887,0.0537309629,0.8823141624,0.3040877616,6.0533205569,1.3954869069,-0.1009257178,0.5349896547,0.8363709249,0.3015431969,1.1370263364,1.1465884827,0.6105838563,-0.1913270822,0.1174722854,0.10179624,0.3814463582,-0.5168346005,0.76966615,-0.1543000485,0.8890016731,-0.5451647208,0.6801770466,0.0697379652,-0.38614302,0.0851351808,0.0216731881,0.8441989409,-0.5360631344,0.6464895434,5.7441804343,1.3510090619,1.2594963605,-0.1226304969,-0.0317055949,-0.387464458,1.3055365085,0.5110993828,0.9241226044,5.8710735597,-0.6676887715,-0.2909991631,-0.5943801759,-0.9271769188,0.1852004922,0.1993966468,1.1476611649,0.2319498131,0.4646728583,0.0345045429,-0.8682374372,-0.4888683283,1.2241516976,-0.2737462386,-0.2102007499,0.2343339542,0.6308882134,-0.2760830487,-0.2140170157,-0.4543306554,-0.5844055071,1.038424681,0.3520550454,0.0154288856,-0.5026612094,0.1215229611,0.1228042499,-0.5754353472,-0.2054339635,-0.690480585,0.6362897246,0.3522630722,0.6422945917,1.2325256301,-1.1072590798,1.1821962397,0.1704957039,-0.1156315861,-0.2255196249,0.2233136402,-0.5920773557,0.8025357527,-0.3821614931,-0.7080959395,-0.1781895259,0.2820607302,0.3092921915,0.7044210524,-1.152356327,0.6427423023,-0.1234634043,-0.4029456341,0.249727936,0.304008114,0.3893640354,0.0531457763,1.0065614274,-0.6729468274,-0.3601165873,0.0306800366,0.1309206042,0.1198974943,0.0188977994,0.2606031977,0.1952596431,1.318685591,0.0324629503,1.2072285226,0.082018977,-0.585024337,-0.2421008507,0.0545607207,-0.5708200658,1.3052909602,-0.4828223098,-0.2313803211,-0.0822599917,0.0109946159,1.0575659187,1.3928398229,0.44224818,-0.1416329826,0.0143174478,-0.0296188718,-0.7919691922,-0.7220294186,0.3409202754,-0.3438748763,0.4118118462,0.6728448733,0.1618431694,-0.5919222117,1.0323347006,0.300022091,-0.7612052767,-0.2819436227,-0.4126853197,0.0005669091,-1.0598067955,0.4790203955,-0.7081999431,-0.3444867279,-0.3621116796,0.0173700537,-0.6279874948,0.3598244849,0.1105327534,0.1423699021,-0.3521620868,1.316872291,-0.6621055195,1.0425773664,0.5860830134,-0.1528682978,-0.419535438,0.4506228066,-0.3681528569,-0.0646435141,-0.2268857184,-0.641303027,1.2604987064,0.4157959829,-0.8846699596,0.7061050069,0.0652068626
